0.000969388 0.000548469 0.000637755 0.000497449 0 0.000688776 0.000841837 0.000956633 5.10204e-05 0.00057398 0.000854592 0.000369898 0.000994898 0.000918367 0.000344388 0.00057398 0.00109694 0.000204082 0.00100765 0.000446429 0.000637755 0.000408163 0.00107143 0.000459184 0.000267857 0.00059949 0.000943878 0.000293367 0.000408163 0.000420918 0.000471939 0.000153061 0.000178571 0.00108418 6.37755e-05 0.000102041 0.000216837 0.000841837 0.000127551 0.000790816 0.000446429 1.27551e-05 0.000918367 0.000153061 0.000586735 0.000433673 0.000727041 0.000714286 0.000739796 0.000752551 0.000625 0.000612245 0.000510204 0.000522959 0.000727041 0.00059949 0.000204082 0.000357143 0.000242347 0.000956633 0.00114796 0.000471939 0.000102041 0.000714286 0.00125 0.00114796 0.00126276 0.000905612 0.000994898 0.000841837 0.000739796 0.000752551 0.000765306 0.000471939 0.00126276 0.00104592 0.00117347 0.000943878 0.00067602 0.000803571 0.00057398 5.10204e-05 0.000790816 0.00109694 0.000994898 0.000535714 0.000229592 0.00118622 0.00122449 0.000790816 0.000369898 0.000369898 0.000943878 0.000242347 0.000127551 0.000267857 0.000280612 0.000829082 0.000841837 0.000701531 0.000331633 0.000229592 0.00065051 0.000535714 0.000535714 0.00105867 0.00059949 0.00121173 0.000969388 0.000918367 0.000446429 0.000433673 8.92857e-05 0.000408163 0.000191327 0.0011352 0.00122449 0.00116071 0.000369898 0.0011352 0.000931122 0.00123724 0.000216837 0.000102041 0.00067602 0.000446429 0.00126276 0.000778061 0.00103316 0.00117347 0.00121173 0.000204082 0.00110969 0.000420918 0.000420918 0 0.000561224 6.37755e-05 0.00057398 0.000867347 0.000484694 0.000765306 0.000816327 0.000586735 0.00232471 0.0120335 0.00290609 -0.000213766 -0.00451825 -0.00950747 -0.0155248 0.0122855 -0.00383075 -0.00563403 0.00837423 -0.00687851 0.00247562 0.00369243 -0.00645952 0.0150984 0.0170478 0.0701681 -0.0554928 -0.0422108 -0.0277058 0.0538875 -0.068488 0.0399037 0.0534039 0.0885773 0.0369542 0.0416214 0.0470552 0.0264805 0.0347644 -0.0213625 0.025854 0.154049 -0.105756 -0.119388 -0.0510583 0.115611 -0.127225 0.0670854 0.107404 0.16642 0.0743661 0.0825269 0.131089 0.0445113 0.0605159 -0.0603761 0.021114 0.233644 -0.0862638 -0.19278 -0.0609803 0.0968644 -0.172816 0.090354 0.0877908 0.122868 0.111092 0.0584589 0.218575 0.0405936 0.0150404 -0.0380674 0.0943512 0.248028 -0.0474274 -0.210362 -0.06177 0.0823146 -0.178178 0.0987389 0.0346202 0.0227477 0.128948 0.0460955 0.222121 0.0589312 -0.0379394 0.0213669 0.20558 0.242505 -0.0017936 -0.227759 -0.061213 0.0709767 -0.16046 0.0949207 -0.0329878 -0.103162 0.138654 0.0286136 0.204954 0.0874767 -0.0880837 0.0913771 0.210367 0.171481 -0.0231392 -0.209937 -0.0427601 0.100085 -0.0981696 0.0636656 -0.0143182 -0.0706517 0.103058 0.0617761 0.143892 0.0827952 -0.0335372 0.0597572 0.208055 0.100259 -0.0372018 -0.176416 -0.0270734 0.124517 -0.0514814 0.0255809 0.000151691 -0.0354721 0.0571646 0.0898659 0.0734214 0.0824054 -0.00445518 0.0309526 0.219149 0.0784276 -0.0199172 -0.134402 -0.03013 0.120878 -0.0539599 0.000971017 -0.0120164 -0.0384128 0.0331349 0.0869999 0.04123 0.0974995 -0.0429612 0.0359707 0.214968 0.0794292 -0.00677022 -0.0997316 -0.030925 0.100745 -0.0489353 0.0112879 -0.0200124 -0.0587112 0.0464627 0.0612911 0.044025 0.0930128 -0.0425759 0.0461018 0.090381 0.0864455 -0.0105072 -0.0915789 -0.01462 0.0467253 -0.0236529 0.0157694 -0.000826928 -0.0163328 0.0428125 0.0271655 0.0806091 0.0379696 -0.00388612 0.0165782 -3.14891e-05 0.0627738 0.00103979 -0.0641152 7.41664e-05 -0.0029371 -0.000644264 0.004588 0.000423592 0.00130067 0.0200074 -0.00175157 0.0729617 -2.91289e-05 0.00209247 0.00286493 -2.45378e-05 0.0271074 0.000705813 -0.0265025 2.94685e-05 -0.000281002 0.00035068 0.00228763 0.00113458 0.000309689 0.00941897 -0.000858541 0.0315412 0.000342658 0.00205922 0.00123391 0.00114796 0.000586735 0.000293367 0.000165816 0.000918367 0.000280612 0.000854592 0.000956633 0.000280612 0.00065051 0.00125 0.000535714 0.000293367 2.55102e-05 0.000127551 0.00057398 0.00059949 0.00117347 0.000956633 0.00108418 0.000790816 0.000586735 0.000344388 0.000841837 0.000127551 0.000204082 0.000140306 0.000357143 0.00122449 0.000561224 0.000357143 0.0011352 0.00067602 0.000446429 0.000790816 0.00112245 0.000369898 0.000663265 0.000778061 0.000344388 0.000931122 0.00117347 0.000267857 0.000369898 0.000433673 0.00122449 0.000344388 0.000140306 1.27551e-05 0.0011352 0.000306122 0.000663265 5.10204e-05 0.000522959 0.000892857 0.000688776 0.00102041 0.000688776 0.000982143 0.000612245 0.000369898 0.00112245 0.000204082 0.000982143 0.000548469 0.00109694 0.000204082 0.000931122 0.000854592 0.000127551 0.000255102 0.00109694 0.000931122 0.000625 0.000369898 0.000306122 0.000497449 0.000420918 0.000344388 0.000382653 0.000127551 0.000522959 0.000114796 0.000165816 0.00126276 0.000306122 0.000229592 1.27551e-05 0.000459184 0.000625 0.000880102 0.00121173 0.000714286 0.000637755 0.000739796 0.000663265 0.000982143 0.000982143 0.00103316 0.000867347 0.00122449 0.000102041 0.00121173 0.000242347 0.000140306 0.00112245 0.000229592 0.000739796 0.000433673 8.92857e-05 0.000586735 0.000778061 0.00114796 0.000752551 0.000267857 0.000242347 0.000216837 0.000892857 0.00059949 0.00105867 0.000165816 0.000216837 0.000382653 0.000829082 0.000216837 2.55102e-05 0.00116071 0.000408163 1.27551e-05 0.00109694 0.000994898 0.000905612 0.00109694 0.000982143 0.000178571 0.000484694 0.000471939 0.000548469 0.00057398 0.00116071 0.00125 0.000892857 0.000293367 0.000918367 0.000727041 0.000727041 0.000114796 0.000586735 0.000612245 6.37755e-05 0 0.000637755 0.00100765 0.000994898 0.000369898 0.00105867 0.000816327 0.000918367 0.000752551 0.000522959 0.000420918 0.000382653 0.000229592 0.000969388 0.000153061 0.000497449 0.000548469 0.000459184 6.37755e-05 0.00105867 0.00114796 0.000956633 0.000829082 0.000765306 8.92857e-05 0.00059949 0.00116071 0.00108418 0.000153061 3.82653e-05 0.00121173 0.000497449 0.000420918 0.000408163 2.55102e-05 0.00110969 0.000267857 0.000408163 6.37755e-05 0.000497449 0.00103316 0.000625 0.000191327 0.00118622 0.000905612 0.000905612 0.000471939 0.000408163 0.000714286 0.000612245 0.000369898 0.00065051 0.000255102 0.000344388 0.000127551 0.00126276 0.000216837 0.00100765 0.000459184 0.000420918 0.00121173 0.000318878 0.00057398 0.000522959 0.000497449 5.10204e-05 0.000637755 0.000880102 0.00116071 0.00118622 0.000714286 6.37755e-05 0.00103316 0.000943878 0.00773286 0.0539092 0.00814578 -0.0343944 -0.0174725 -0.0268926 -0.0472879 0.0286834 -0.00833666 0.0498743 0.0331943 -0.0283277 0.0709177 0.00804825 -0.0280586 0.0331352 0.0452927 0.153845 -0.0118342 -0.0943927 -0.0664367 -0.0366578 -0.176704 0.088846 0.0221539 0.244612 0.0767052 -0.0530513 0.196237 0.0497353 -0.0342242 0.0528034 0.103142 0.170894 -0.0393542 -0.0339739 -0.106141 -0.0550113 -0.285365 0.127302 0.060999 0.345819 0.0529256 -0.0761925 0.175612 0.130458 -0.000718402 0.0791585 0.167441 0.177731 -0.0360383 0.0176828 -0.0934056 -0.105928 -0.271309 0.147471 0.0412327 0.26405 0.0639132 -0.1248 0.135374 0.156965 -0.0225297 0.173136 0.246047 0.205941 -0.0312806 -0.0042603 -0.0396224 -0.0702482 -0.200136 0.168264 0.00940956 0.129519 0.104195 -0.0955402 0.1414 0.11941 -0.0713912 0.245279 0.217152 0.260137 0.0153607 0.0589502 0.0337844 -0.00529166 -0.150185 0.175717 -0.0209757 -0.0135806 0.138057 -0.0534988 0.161568 0.057736 -0.168904 0.25501 0.218608 0.273944 0.087108 0.165233 0.0592984 0.0173135 -0.126752 0.146489 -0.0667836 -0.191704 0.139795 -0.0505825 0.107308 0.0452155 -0.236522 0.231013 0.223133 0.353425 0.0804361 0.0473324 0.0354896 0.00644694 -0.114642 0.141705 -0.0731079 -0.261769 0.210079 -0.0552302 0.168346 0.0497941 -0.148446 0.193788 0.169093 0.350667 -0.0158536 -0.158248 0.0552046 0.0937108 -0.0947134 0.11678 0.0140459 -0.121874 0.220815 0.0397601 0.212187 0.021758 -0.00314313 0.0896038 0.126097 0.289687 -0.0636533 -0.229933 0.078157 0.169804 -0.0876652 0.115881 0.0635582 -0.0550979 0.177231 0.111696 0.164405 -0.000496912 0.0461938 0.0429238 0.162342 0.205135 -0.0557301 -0.156742 0.046885 0.161255 -0.0793941 0.0812662 0.0398587 -0.0438262 0.12535 0.10833 0.0724427 0.0345394 -0.00664954 0.025631 0.210533 0.174451 -0.0396137 -0.117544 -0.0170053 0.116988 -0.12285 0.0873672 0.010366 -0.0330409 0.134648 0.0716979 0.0780213 0.080662 -0.00539881 0.0283962 0.142154 0.174688 -0.00956129 -0.116918 -0.0559471 0.078546 -0.15251 0.0595757 -0.00204284 0.0176806 0.101973 0.0315618 0.13573 0.0877843 -0.0153451 0.0053695 0.0299752 0.140232 0.0295937 -0.07792 -0.0344413 0.0289012 -0.0939272 0.0340156 -0.0247389 -0.000463563 0.0622021 -0.0107577 0.124777 0.0384727 -0.0472435 -0.00863073 0.0101615 0.0128571 0.0328992 0.0206979 -0.00893243 -0.0105306 -0.0291244 0.0089666 -0.0309113 -0.0324841 0.0103847 -0.0226342 -0.00392494 0.0108232 -0.037134 0.0127337 0.000701531 0.000306122 0.000739796 0.00110969 0.000586735 0.000918367 0.00117347 0.000102041 0.000318878 0.000969388 0.00112245 0.000612245 0.000892857 0.00108418 0.00057398 0.000727041 0.00117347 0.000918367 0.000357143 0.000535714 0.00122449 0.000484694 0.000357143 0.000140306 0.000280612 0.000956633 0.000178571 0.000548469 0.000765306 0.000561224 0.000765306 0.000242347 0.000956633 0.000510204 0.00108418 0.000982143 0.000727041 0.00122449 0.00107143 0.000420918 0.000956633 0.00067602 0.00102041 0.000841837 0.000153061 0.000688776 0.000880102 6.37755e-05 0.0011352 0.00126276 0.000395408 0.000522959 0.00119898 0.000688776 0.000803571 0.000854592 0.000778061 0.000459184 0.000714286 0.000204082 0.000943878 0.00057398 0.000204082 0.000229592 0.000548469 0.000242347 8.92857e-05 0.00122449 0.000778061 0 0.000344388 0.000357143 0.000280612 0.000803571 0.000625 0.000918367 0.000255102 0.000943878 0.000344388 0.00067602 0.000178571 0.00123724 8.92857e-05 0.000229592 0.000471939 0.000471939 0.000994898 0.000714286 0.000535714 0.00057398 0.000867347 0.000663265 0.000331633 0.000318878 0.000701531 0.00109694 0.000331633 0.000637755 0.000688776 0.000714286 0.000612245 0 0.000408163 0.00125 0.00114796 0.000446429 0.000982143 0.00067602 0.00108418 0.000395408 0.00117347 0.000114796 0.000420918 0.000229592 0.00057398 0.000816327 0.000956633 0.000408163 2.55102e-05 0.00107143 3.82653e-05 0.00102041 0.000931122 5.10204e-05 0.000204082 0.000127551 0.00107143 0.00067602 0.00117347 0.000280612 0.000497449 0.000790816 0.00122449 0 0.00057398 0.000229592 0.000395408 0.000790816 0.000829082 0.000369898 0.000165816 0.000331633 0.000956633 0.000331633 0.0216241 -0.063168 0.0209034 0.0828787 -0.0109773 -0.011272 0.0354268 -0.0365356 -0.151364 -0.115767 -0.0317899 0.00475381 -0.108209 0.0172797 -0.0517081 -0.00378254 0.0533688 -0.138524 0.0536134 0.193792 -0.00771132 -0.00772782 0.0836149 -0.0923142 -0.319813 -0.254594 -0.0699763 0.0215188 -0.200173 0.0390494 -0.135587 -0.0301281 0.0723099 -0.169858 0.104184 0.268101 0.0163171 0.0120779 0.148899 -0.139765 -0.388926 -0.331252 -0.0898486 0.0508675 -0.18185 0.0494991 -0.218601 -0.0737566 0.0721583 -0.09922 0.105804 0.188123 -0.0281326 -0.0499088 0.131402 -0.0932676 -0.376703 -0.251658 -0.0418395 0.00798445 -0.101849 0.0476125 -0.201019 -0.0289646 0.117348 0.0712864 0.00267867 0.0155972 -0.130549 -0.160372 -0.108614 0.0466749 -0.217854 0.0549379 0.0632089 -0.122537 0.0557098 0.102255 -0.086341 0.086974 0.20298 0.0967947 -0.0835346 0.0862858 -0.157789 -0.163658 -0.196157 0.0810304 -0.108659 0.168435 0.0308795 -0.120068 -0.00500351 0.223352 -0.0254015 0.134595 0.303217 0.0955324 -0.0951412 0.107731 -0.120872 -0.131132 -0.0428352 0.0309391 -0.092389 0.0859987 0.0132647 -0.0347211 -0.00607359 0.274498 -0.0346223 0.16453 0.298135 0.21788 -0.131442 -0.114752 -0.0858568 -0.0977754 -0.0753685 0.117884 -0.00385989 0.0675017 0.118108 -0.048948 0.186158 0.118575 0.0792991 0.208942 0.132143 0.348454 -0.179565 -0.283658 -0.100486 -0.180199 -0.297243 0.260952 0.0831121 0.112959 0.24452 -0.219248 0.365809 -0.0940277 0.169979 0.224097 0.0347323 0.299196 -0.146767 -0.241029 -0.0472734 -0.264957 -0.303804 0.277586 0.0549974 0.0519146 0.239825 -0.314382 0.305442 -0.225802 0.151022 0.216946 0.0144093 0.287478 -0.197602 -0.271043 -0.0321299 -0.256584 -0.309152 0.264133 0.117959 0.138513 0.227607 -0.280227 0.305922 -0.246045 0.218695 0.193916 -0.0303078 0.251561 -0.209842 -0.246426 0.0136054 -0.202247 -0.27694 0.216455 0.144787 0.14908 0.186062 -0.225213 0.270469 -0.275941 0.209875 0.170632 -0.0852254 0.478171 -0.230462 -0.291107 0.0734693 -0.0338219 -0.190025 0.200019 0.171496 0.135055 0.345814 -0.070834 0.486745 -0.256012 0.225602 0.0541121 0.0384017 0.425194 -0.127735 -0.286061 0.0702535 0.0752588 -0.170571 0.184881 0.0790699 -0.0261843 0.290563 0.0331667 0.362543 -0.0877719 0.142247 0.0792479 0.0694731 0.276307 -0.0684342 -0.208617 0.111372 0.196101 -0.0942385 0.109606 0.079495 -0.0292033 0.126716 0.132117 0.165499 -0.0120269 0.0696978 0.0559957 0.186858 0.17882 -0.0505851 -0.0937926 0.00812991 0.13451 -0.0783455 0.0975512 -0.0495234 -0.137519 0.123458 0.0769186 0.0305049 0.0561862 0.0472977 0.0457035 0.25319 0.0676393 -0.0463235 0.0112121 -0.0491622 0.0815653 -0.0760381 0.0487316 -0.232219 -0.228654 0.0954781 0.0714148 -0.0995578 0.105609 -0.0309692 0.0316149 0.113204 0.0620793 -0.0791314 -0.0250639 -0.0271992 0.112413 -0.069601 0.0422118 -0.2065 -0.0435969 0.070567 0.115982 -0.0551644 0.0440501 -0.00980887 -0.0842262 -0.0248237 -0.0670573 0.0472306 0.109358 0.0301305 0.00981206 0.020482 0.00994677 -0.276665 -0.111464 -0.00689149 0.0263219 -0.176172 -0.0450976 -0.0818925 -0.0582608 -0.0687019 -0.0681306 -0.0223788 0.0218312 0.0659326 0.0560717 0.0818895 0.0162945 -0.0697953 0.045389 -0.0173972 0.0689843 -0.0958153 -0.0871488 0.0179232 -0.0808394 -0.0855402 -0.0197703 -0.0374367 -0.0424732 0.0744394 0.0650193 0.0554852 0.0449171 0.0476026 0.135292 0.00826933 0.0657339 -0.0103003 -0.0994688 0.0586404 -0.0772292 -0.0744436 -0.0169623 -0.0324005 -0.0368495 0.0657025 0.0563375 0.048749 0.0397799 0.0425156 0.117595 0.0074538 0.0569513 -0.00895146 -0.0875439 0.0508674 -0.0675037 -0.0314915 -0.00635772 -0.0141267 -0.0158126 0.0284814 0.0245021 0.021076 0.0175164 0.0181182 0.0506784 0.00275272 0.0245622 -0.0037658 -0.0371648 0.022949 -0.028679 0.000625 0.000318878 0.000357143 0.000459184 0.000548469 5.10204e-05 0.00065051 0.000625 0.00112245 0.000522959 0.000816327 0.00119898 0.000765306 0.00107143 0.000382653 0.00105867 8.92857e-05 0.000931122 0.000178571 0.000420918 0.000331633 0.000778061 0.00116071 0.000242347 1.27551e-05 0.000841837 0.000510204 0.000191327 0.000178571 0.000688776 0.000841837 0.000612245 0.000229592 0.000191327 0.000408163 0.000140306 0.000701531 0.000382653 0.000701531 0.00126276 0.000790816 0.00126276 0.000931122 0.000522959 0.000841837 0.000854592 0.000293367 0.00112245 -0.0234273 -0.00531676 -0.00949489 -0.0117382 0.02175 0.0188389 0.0158739 0.0125665 0.0139139 0.0383819 0.00223673 0.0190753 -0.00191236 -0.0280617 0.0166728 -0.0220832 -0.0744818 -0.0165031 -0.0332678 -0.0370026 0.065256 0.0566054 0.0487107 0.0396523 0.0424645 0.118616 0.0065737 0.05764 -0.00920656 -0.0867276 0.0516583 -0.0675675 -0.0432337 -0.148358 0.00223861 0.125549 0.0522558 0.0418554 0.125629 -0.0304707 -0.261469 -0.100443 -0.0572366 0.0743793 -0.232835 -0.0664002 -0.0469617 -0.0855787 -0.00832609 -0.189796 0.0476697 0.218775 0.095226 0.0878472 0.174248 -0.0941789 -0.319895 -0.182302 -0.079478 0.113809 -0.181165 -0.0469253 -0.154753 -0.158169 0.00300794 -0.201598 0.120968 0.273579 0.101042 0.0653167 0.289521 -0.139399 -0.395114 -0.236265 -0.0849137 0.142196 -0.196581 -0.0408444 -0.206511 -0.165565 0.0380488 0.0304321 0.0664257 0.0838568 0.0221913 -0.00984954 0.116205 -0.0373331 -0.303468 0.0548173 0.0913812 0.0644715 0.082022 -0.00931475 -0.188663 -0.108007 0.0877875 0.0437537 -0.0432844 0.170106 -0.0460105 -0.0877781 0.0105946 0.0658341 -0.167176 0.137288 0.053725 -0.011794 -0.0511926 0.0927201 -0.098034 0.00905824 0.183069 0.0410965 -0.21155 0.0325224 -0.0826022 -0.100714 -0.0192142 0.0231552 -0.0619194 0.202541 0.04719 0.000783273 -0.0137671 0.126487 0.0439344 0.0185332 0.152293 0.107838 -0.25523 -0.106089 -0.0303344 -0.0349189 0.0329152 0.0400477 -0.129085 0.0915147 0.147186 0.0315441 0.0994511 -0.0708438 0.17032 0.0204624 0.150776 0.162551 -0.198331 -0.0931107 -0.0717598 -0.0853033 -0.0827913 0.0871188 -0.200684 0.0269811 0.176184 -0.0606349 0.0870804 -0.0901664 0.0833344 0.0659122 0.127046 0.0617501 -0.0853809 0.0300513 -0.00874551 -0.216148 -0.0103021 0.0398618 -0.31158 -0.146116 0.101818 -0.167535 -0.0774856 -0.140519 -0.0387385 0.117629 0.135627 0.0512482 -0.143958 0.0444589 -0.0194611 -0.254417 -0.139939 0.0470854 -0.249118 -0.0954533 0.0826988 -0.205281 -0.107654 -0.120263 0.0216421 0.162286 0.115912 0.0884057 -0.158809 0.0391628 -0.0498593 -0.279714 -0.207734 0.0352926 -0.216326 -0.0651542 0.0599615 -0.239265 -0.0370221 -0.0969281 -0.022843 0.156991 -0.037738 0.182329 -0.242529 -0.0423865 0.00736211 -0.185691 -0.150508 0.061722 -0.0583753 0.154052 0.116561 -0.149235 0.133309 -0.180648 0.113628 0.0561255 -0.0655279 0.219591 -0.261547 -0.0632517 0.0296313 -0.136675 -0.0984202 0.0585324 -0.0581279 0.152664 0.166422 -0.106072 0.161165 -0.193347 0.133607 0.0136971 -0.0358467 0.207654 -0.196374 -0.0931261 -0.00386995 -0.118869 -0.0950576 0.0895067 -0.172502 -0.100168 0.143597 -0.103638 0.113315 -0.105109 0.116138 0.0431778 0.199442 0.0935321 0.0199728 0.118193 0.073781 0.0661264 0.0160603 0.0358269 -0.291784 -0.310179 0.0275164 0.0760167 -0.149331 0.108596 -0.142925 0.0987174 0.189728 0.0568693 -0.00668179 0.0197574 0.068817 0.211361 0.100201 0.00637405 -0.294561 -0.27988 0.0172561 0.200006 -0.150912 0.064264 -0.114735 -0.0106082 0.194032 0.0423037 -0.0466991 -0.0121621 0.0571349 0.168928 0.0989945 0.017882 -0.254949 -0.199553 0.0892633 0.179902 -0.166179 0.0285173 0.0146509 -0.0415309 0.205862 -0.01191 -0.0903349 0.0308399 -0.0276093 0.109668 -0.070842 0.0257851 -0.237205 -0.165408 0.0855942 0.109929 -0.199716 0.0615993 -0.015308 -0.00947834 -0.0409561 -0.0522157 -0.0395306 0.05135 0.0442975 0.0199648 0.0115295 -0.0220411 -0.247599 -0.081734 0.0253319 0.0623489 -0.199122 -0.0568156 -0.0286754 -0.0751097 -0.0593809 -0.181064 -0.00546392 0.146194 0.0649212 0.0601528 0.134829 -0.0769476 -0.258336 -0.091942 -0.0596022 0.0851242 -0.309153 -0.0779047 -0.0468143 -0.0949692 -0.0886623 -0.0323876 -0.039397 -0.0311222 0.0758462 0.0686991 0.0555195 0.0201457 0.0436595 0.135323 0.0063064 0.0665365 -0.0442637 -0.10141 0.056619 -0.0783058 -0.0856678 -0.0195663 -0.0371179 -0.0426008 0.0748221 0.0652744 0.0552683 0.045134 0.0482786 0.135126 0.00736372 0.0657594 -0.0110145 -0.0997494 0.0585511 -0.0779945 -0.0822909 -0.0188068 -0.0360118 -0.040911 0.0726761 0.0624343 0.0537341 0.0440282 0.0468219 0.130836 0.00697489 0.063063 -0.0106263 -0.0965959 0.0570415 -0.0746479 0.000752551 0.000752551 5.10204e-05 0.000943878 0.000382653 0.00065051 0.00103316 0.00109694 0.000637755 0.000778061 0.000165816 0.00125 0.000153061 0.000484694 0.00116071 0.00125 0.000765306 0.00122449 6.37755e-05 7.65306e-05 0.00065051 0.00103316 0.000854592 0.00109694 0.00103316 0.00105867 0.000484694 0 0.000497449 0.000548469 0.000140306 0.00110969 0.000548469 0.000816327 0.000829082 0.000803571 0.000803571 0.000994898 0.00108418 0.0011352 0.000293367 0.000395408 0.000765306 0.000497449 0.000510204 0.000586735 0.000255102 0.00126276 -0.0741502 -0.0166052 -0.0322602 -0.0366709 0.0650392 0.0564523 0.048851 0.0389891 0.0425411 0.118577 0.00700738 0.0570278 -0.00946166 -0.0874547 0.0509185 -0.0680522 -0.0853872 -0.0192346 -0.0370413 -0.0426646 0.0745542 0.0653382 0.0560847 0.0447641 0.047577 0.135049 0.00798872 0.0653129 -0.0102747 -0.100413 0.0581684 -0.0769741 -0.0422786 -0.149614 0.00274147 0.126907 0.052371 0.0411481 0.126656 -0.0307924 -0.265691 -0.103721 -0.057935 0.0738284 -0.235864 -0.0653467 -0.0481038 -0.0862914 -0.0149925 -0.205485 0.0593283 0.23678 0.115559 0.112259 0.200341 -0.0988254 -0.327638 -0.189418 -0.0945227 0.141258 -0.225878 -0.0520817 -0.165587 -0.155615 0.00455818 -0.122018 0.0811003 0.162101 0.0834454 0.0155301 0.243443 -0.119888 -0.324025 -0.152864 -0.00527832 0.115087 -0.112099 -0.0448918 -0.147649 -0.155055 0.0511424 0.160154 -0.0122307 0.0765859 0.0160202 0.052953 0.0727464 0.0311288 -0.219854 0.120184 0.166675 0.0915975 0.130935 0.0330503 -0.152719 -0.126982 0.0964425 0.0370382 -0.149358 0.0901171 -0.0499028 -0.0781864 0.129015 -0.015747 -0.136031 0.172712 0.00829504 0.0540777 -0.0381599 0.103459 -0.0576719 -0.0400045 0.157876 0.0827871 -0.20787 -0.068254 -0.0647119 -0.0928283 0.080083 0.0322811 -0.209747 0.0244662 0.127127 0.00910744 0.0700972 -0.0488567 0.107778 0.0226223 0.120725 0.0671246 -0.153348 0.00735496 -0.0110787 -0.0498238 0.0305423 0.0642099 -0.270589 -0.117629 0.126803 -0.0166007 -0.027927 -0.124863 0.0632393 0.00372525 0.0470903 -0.0451355 -0.231563 -0.0443979 0.0477095 -0.0256301 0.106288 0.00929518 -0.19028 -0.154948 0.0806736 0.037777 -0.0973811 -0.203748 0.138706 -0.0962087 0.0311626 -0.0952378 -0.219853 -0.148346 0.042862 -0.0429711 0.148425 -0.0473908 -0.182445 -0.0317293 0.0982808 0.0164644 -0.0149125 -0.206979 0.154311 -0.0880853 -0.000300116 -0.0925165 -0.203328 -0.156479 0.00647476 -0.0716869 0.0900975 -0.0779048 -0.165824 0.16984 0.0592459 -0.00580032 0.025478 -0.166983 0.168042 -0.088897 -0.0270659 -0.107179 -0.243699 -0.0439932 -0.0571055 -0.178932 0.0155791 -0.0652565 -0.111054 0.323786 0.0179137 -0.0784962 -0.0495824 -0.0947556 0.245228 -0.0506488 -0.0663555 -0.114046 -0.308388 -0.0174826 0.0115783 -0.151878 0.102723 -0.0811414 0.00455026 0.480871 -0.0195206 -0.0199871 -0.0170122 -0.0921563 0.39257 -0.0333662 -0.0887949 -0.0490948 -0.303765 -0.0572354 0.0564419 -0.0878424 0.114701 -0.0693644 -0.0106147 0.442596 0.00606001 0.0287031 0.053177 -0.103482 0.309408 -0.0662513 -0.0736779 0.0654935 -0.257919 -0.159186 0.0205351 -0.118876 0.0820057 0.0133476 -0.0926932 0.277118 0.0944219 -0.0423229 0.15892 -0.0754587 0.246817 0.0194287 0.0370133 0.04494 -0.0945896 -0.0341618 0.0749615 -0.0768048 0.213103 0.0315527 -0.169093 0.0782531 0.0479084 -0.0319243 0.00603193 0.0419798 0.0898054 0.0926332 0.282996 -0.024359 -0.0883383 0.0145513 0.0422656 0.138024 0.177414 0.0432321 -0.171474 -0.100825 0.0476493 0.12993 -0.170055 0.175387 0.0105204 0.0887872 0.318039 0.0212802 -0.015853 0.0173079 0.0913808 0.167204 0.263539 -0.106707 -0.267573 -0.236431 0.0817728 0.254707 -0.108265 0.193721 -0.0702516 -0.0240478 0.37942 -0.0446358 -0.0365749 0.0436258 -0.0549971 0.0544796 0.0675499 -0.107911 -0.297697 -0.247539 0.041481 0.154657 -0.145018 0.271284 -0.0626088 0.0355246 0.0740668 -0.0608675 -0.0855712 0.00259448 -0.0206968 -0.0609091 0.0145877 -0.0330176 -0.193796 -0.0810476 0.0494848 0.0304171 -0.0886868 0.113048 0.0481147 0.0291075 -0.0704161 -0.0991892 -0.089294 -0.0258656 0.0715208 0.0487737 0.0712016 -0.0191426 -0.0588946 0.0971432 0.0101996 0.0839352 -0.132837 -0.0549304 0.100327 -0.0714748 -0.0921263 -0.047225 -0.0405346 -0.0111208 0.0763183 0.0728857 0.0553419 -0.0156743 0.0379119 0.134519 0.0045947 0.0670757 -0.08911 -0.101592 0.0553555 -0.0797713 -0.0858846 -0.0188902 -0.0371689 -0.0426518 0.0745925 0.064879 0.0557785 0.0453253 0.0480745 0.134322 0.0083076 0.0660527 -0.0103003 -0.100311 0.0587552 -0.0772292 -0.0508122 -0.0118496 -0.0217449 -0.025175 0.0442713 0.0387359 0.0337296 0.0266904 0.0291884 0.080693 0.00508952 0.039381 -0.00535542 -0.0588189 0.0343732 -0.0452547 0.000318878 3.82653e-05 0.00103316 0.000765306 0.0011352 0.000880102 0.000318878 0.000267857 0.000153061 0.00108418 0.00103316 0.000803571 0.00123724 0.000548469 0.000701531 0.000446429 0.000790816 0.000433673 0.000829082 0.00102041 0.000204082 0.000204082 0.000165816 0.000752551 0.00107143 0.000535714 0.000637755 0.000535714 0.00112245 0.000637755 0.000892857 0.000357143 0.000714286 0.00110969 0.000114796 0.000102041 0.000191327 0.00109694 0.000880102 0.000663265 0.00108418 0.000446429 0.000841837 0.000905612 0.00123724 0.000625 0.000854592 0.000714286 -0.0483235 -0.0105439 -0.0228343 -0.0236925 0.0429741 0.0377924 0.0308609 0.0214756 0.0294493 0.0697002 0.00441063 0.0378251 -0.00520668 -0.0551906 0.0312065 -0.0404581 -0.112574 -0.0231574 -0.0564043 -0.0530685 0.0986949 0.0865613 0.0672669 0.0443576 0.0702561 0.15237 0.0102272 0.0876796 -0.0142886 -0.125821 0.0692818 -0.0913069 -0.081268 -0.162371 -0.0224878 0.111521 0.0879936 0.0743658 0.147672 -0.0267115 -0.234771 -0.0796536 -0.0570193 0.106598 -0.246287 -0.102677 -0.034677 -0.107173 -0.0576907 -0.216246 0.00988636 0.190706 0.146666 0.163366 0.23626 -0.0965965 -0.256898 -0.126387 -0.106491 0.197754 -0.284814 -0.0932786 -0.118822 -0.164855 -0.0344222 0.00937822 0.0771888 0.0809017 0.0817757 0.0496873 0.214199 -0.0866254 -0.318562 -0.209452 0.0113292 0.134097 -0.0368164 -0.0764515 -0.198429 -0.111381 0.0545062 0.294377 -0.111156 -0.058356 -0.00837055 0.0175838 -0.0505886 0.0785207 0.098947 0.310087 0.142279 -0.00740751 0.261213 0.0738166 -0.0751603 -0.0131978 -0.0936592 0.285856 -0.334511 -0.29203 -0.0355702 -0.0259823 -0.0509716 0.115371 0.211981 0.465808 0.165821 -0.000454801 0.376036 -0.130691 0.181898 -0.0931341 0.0632884 0.138019 -0.179255 -0.0972002 0.0177343 -0.0169417 0.0114755 0.0978997 -0.137879 0.0350894 0.137192 -0.0250578 0.111867 -0.147236 0.0487503 0.0331219 0.00500571 -0.219481 -0.126522 0.25863 0.125107 0.033789 0.192767 -0.0699435 -0.365932 -0.378148 -0.0962264 0.0614297 -0.417552 -0.233367 -0.05996 -0.0974502 0.00773721 -0.194936 -0.130422 -0.0158294 0.0777353 -0.0247473 0.18484 -0.114269 -0.353837 -0.265474 0.0156028 0.0307223 -0.158535 -0.190483 0.0252931 -0.0884808 -0.00452187 -0.246765 -0.0662833 0.0587626 0.103342 0.00247631 0.190083 -0.171829 -0.334387 -0.151045 -0.0922268 0.0582582 -0.239516 -0.0890926 -0.144545 -0.126478 0.0608774 -0.340785 -0.0180764 0.229146 0.0844834 0.00128221 0.208929 -0.232931 -0.266958 -0.0427688 -0.235757 0.0804612 -0.369172 0.119353 -0.193708 -0.124577 0.0545538 -0.391303 -0.104117 0.236894 0.122224 0.0834304 0.281822 -0.23706 -0.110728 0.219658 -0.261413 0.187977 -0.384243 0.115015 -0.0496166 -0.128565 -0.132623 -0.337089 -0.332872 0.0405236 0.138771 0.157336 0.257071 -0.208397 0.03383 0.502305 -0.16687 0.224357 -0.154459 -0.109876 0.206563 -0.25656 -0.106697 -0.203439 -0.269163 0.0478586 0.10158 0.0129962 0.210096 -0.134748 -0.056783 0.380509 -0.0737758 0.0754717 -0.0161388 -0.0905609 0.136915 -0.148637 -0.114085 -0.0919578 -0.260958 -0.0459522 0.0680432 -0.0621533 0.149364 -0.0507363 -0.0771807 0.316506 0.019756 -0.0204071 0.0723763 -0.0967919 0.143905 -0.0763091 -0.142144 0.0359202 -0.189229 -0.157464 0.108818 -0.0246956 0.220963 0.0120283 -0.138219 0.249297 0.078829 0.00465887 0.0992824 -0.14379 0.172567 -0.0416189 0.361714 -0.061638 0.0522438 0.189871 0.0455739 0.107682 0.299188 -0.0693226 -0.334618 -0.11944 -0.0163195 0.122845 -0.227027 0.231163 -0.157337 0.116617 0.317698 0.00137439 -0.00357981 0.0283189 0.105694 0.2159 0.40964 -0.138452 -0.253911 -0.150317 0.0776122 0.309355 -0.0939195 0.159951 -0.0839018 -0.0517805 0.343075 0.0501828 -0.0909236 -0.135308 0.0395911 0.125664 0.126598 -0.0908071 -0.0993574 -0.117192 0.0980428 0.212979 0.0495914 0.257555 -0.0220896 -0.0162251 0.11031 0.0713256 -0.116489 -0.182105 -0.0147109 -0.0715715 0.00844644 -0.0263024 0.115151 0.137103 0.105573 0.0586212 0.196755 0.17951 0.176361 0.085201 -0.0683765 0.0545463 -0.180301 -0.227327 0.0523306 0.010541 -0.0462409 0.0687151 0.212423 0.289936 0.127278 0.0485858 0.16848 -0.000217137 0.25476 -0.00556089 -0.102505 -0.0392237 -0.0479616 -0.0286089 0.0854719 0.0806419 0.061012 0.00759205 0.0507924 0.142989 0.0066357 0.0754718 -0.0626677 -0.112953 0.0606812 -0.0856921 -0.0851193 -0.0196555 -0.0375005 -0.0424732 0.0752813 0.0641137 0.0556638 0.0453253 0.0475133 0.135445 0.00803974 0.0658359 -0.00999414 -0.0999152 0.0585766 -0.0778669 0.000153061 0.00122449 0.000369898 0.000727041 0.000918367 0.000280612 0.000548469 0.000956633 0.000165816 0.00119898 0.000739796 0.00112245 0.000229592 0.000931122 0.000535714 0.000625 0.00100765 0.000752551 0.00118622 5.10204e-05 5.10204e-05 0.000956633 8.92857e-05 0.00057398 0.000344388 0.000306122 0.000433673 0.000267857 0.000637755 0.000306122 0.00103316 0.00102041 0.00059949 0.000140306 0.000816327 0.00100765 0.000178571 0.000433673 0.00118622 0.00109694 0.000459184 0.000982143 0.00103316 0.00123724 7.65306e-05 0.00114796 0.000102041 0.000178571 0.000420918 0.000803571 0.000433673 0.000790816 0.000446429 0.000522959 0.000497449 0.00118622 0.000484694 0.000778061 0.000778061 8.92857e-05 0.000242347 0.000548469 0.000420918 0.000229592 -0.0267026 -0.00348907 -0.018789 -0.0107738 0.0251484 0.0220139 0.0126108 0.000142001 0.0235082 0.0189793 0.00211088 0.023183 -0.00284036 -0.0252556 0.0113302 -0.0130828 -0.0307227 -0.00437818 -0.0207181 -0.0121322 0.028374 0.0256065 0.0143345 0.000238851 0.0257091 0.021006 0.00229527 0.0253848 -0.00387157 -0.0289222 0.0130725 -0.0151867 -0.00962804 -0.158751 0.00905722 0.148019 0.0323877 0.0270751 0.109358 -0.0603247 -0.271612 -0.20686 -0.0654818 0.0588877 -0.25084 -0.0178787 -0.0903662 -0.0409407 0.0222988 -0.154952 -0.0291718 0.120036 0.042011 0.113632 0.181573 -0.14029 -0.201427 -0.168594 -0.103317 0.15214 -0.235937 -0.00770901 -0.084253 -0.0938256 0.0534737 0.0856472 0.139122 0.127768 -0.0132952 -0.0320981 0.0690023 -0.0510986 -0.392918 -0.447679 0.00131286 0.00274111 -0.0361188 0.0350496 -0.317147 0.0184415 0.176058 0.211571 0.00275953 0.020924 -0.020951 -0.0647075 0.0862939 -0.00813546 -0.016943 0.0611981 -0.0334924 -0.00728426 0.148277 0.182827 -0.207769 0.110078 -0.110395 0.369732 -0.315809 -0.285594 -0.0190755 0.0270145 -0.0151419 0.104917 0.191129 0.357946 0.132311 0.0596798 0.374432 -0.142831 0.118484 -0.0234379 0.0429589 0.0362426 -0.0594366 0.069226 0.0616595 -0.0335902 0.0384458 0.0654752 -0.15151 -0.144953 -0.00199608 -0.08485 -0.034118 -0.160613 -0.148037 0.0810382 0.00962558 -0.204334 -0.0670266 0.040115 0.0962113 -0.0576866 0.112021 -0.0691091 -0.139856 -0.243906 -0.124338 -0.0444333 -0.142376 -0.198392 -0.0315716 0.00676367 -0.0420683 -0.0798351 -0.0834089 -0.126524 0.0962171 -0.0273587 -0.099954 0.100391 -0.0262019 -0.0260229 0.0746781 -0.103879 0.0521096 -0.18509 0.108288 0.0277395 -0.116251 -0.176282 -0.0803232 0.0223805 0.101566 0.000178022 -0.111311 0.0461292 0.09681 0.22852 -0.104001 -0.0711905 -0.116799 -0.0522431 -0.0250874 -0.086838 -0.139443 -0.249705 -0.178406 0.00220542 0.188705 0.127203 0.0956403 -0.0700656 0.191589 0.329754 -0.160371 0.1015 -0.140362 -0.0658229 0.138696 -0.167573 -0.127252 -0.247285 -0.113547 0.165099 0.249261 0.222159 0.189031 -0.0906844 0.173499 0.29252 -0.159649 0.208411 -0.143985 -0.0513788 0.0765613 -0.156294 -0.227044 -0.234355 -0.172277 0.116934 0.258886 0.262108 0.288481 -0.11058 0.176911 0.284562 -0.106614 0.255416 -0.0501537 -0.177692 0.134337 -0.233594 -0.318934 -0.101442 -0.31462 -0.128355 0.201231 0.156646 0.199124 -0.0935344 0.252442 0.559103 -0.00955905 0.17798 0.215412 -0.253729 0.302899 -0.265296 -0.265076 -0.0126286 -0.364082 -0.138228 0.143353 0.0707514 0.161053 -0.0280719 0.324132 0.666837 0.0402765 0.0634951 0.206081 -0.23316 0.376935 -0.173851 -0.285225 0.101104 -0.355045 -0.282962 0.170123 0.087717 0.2492 0.0562566 0.264968 0.604428 0.136746 0.114463 0.296577 -0.268549 0.377533 -0.128007 0.284464 0.122464 -0.0339603 -0.106809 0.111638 0.130011 0.314465 -0.0840589 0.015086 0.205754 0.0710965 0.173172 0.175154 0.169531 -0.0560837 0.0258427 0.333482 0.0990807 -0.0922893 -0.177932 0.0319446 0.197436 0.257373 -0.135839 0.0865058 0.183518 0.130885 0.226028 0.237432 0.187285 0.00479894 -0.00976947 0.29697 0.201848 -0.213418 -0.366572 0.0712557 0.1518 0.0813239 -0.0280267 0.228176 0.174237 0.220382 0.209255 0.39222 0.20348 0.136466 -0.0363506 0.0804929 0.179602 -0.116492 -0.295679 -0.0557776 -0.127506 -0.128312 0.0598596 0.118084 0.103862 0.205471 -0.0540637 0.380165 0.137366 0.144555 0.0718362 -0.0383381 0.098942 -0.165195 -0.206546 0.0149361 -0.0284088 -0.0832802 0.101945 0.198055 0.212595 0.157848 0.00908095 0.266506 0.0268701 0.208506 0.0135212 -0.107718 0.0231898 -0.0750762 -0.0667252 0.0914202 0.0750256 0.0424966 0.0645245 0.0867678 0.14073 0.0389133 0.0920627 0.0334675 -0.119333 0.0795794 -0.0860991 -0.0499066 -0.0114415 -0.0220127 -0.0250985 0.0448835 0.0379706 0.0337424 0.026244 0.0280915 0.0805527 0.00424768 0.0396234 -0.00580185 -0.0584363 0.0352278 -0.0450761 0.00126276 0.000280612 0.000102041 0.000548469 0.000318878 0.000688776 0.000829082 0.00109694 0.000841837 0.000165816 0.00067602 0.00104592 0.000293367 0.000433673 0.00109694 0.000867347 7.65306e-05 0.000994898 0.000242347 0.00118622 0.000548469 0 0.000867347 0.000905612 0.00119898 0.000905612 0.000280612 0.000714286 0.00116071 0.000306122 0.000165816 8.92857e-05 7.65306e-05 0.000408163 0.000255102 0.00059949 0.000153061 0.000255102 0.000255102 0.000778061 0.000114796 3.82653e-05 0.000625 0.000841837 0.000140306 0.000306122 5.10204e-05 0.000880102 0.000854592 0.000165816 0.000433673 0.000688776 0.000854592 0.00065051 0.00100765 0.000331633 0.00122449 0.00100765 0.000956633 0.000114796 0.000829082 0.000969388 0.000880102 2.55102e-05 -0.0141284 -0.00185774 -0.00911868 -0.0056965 0.0141943 0.0128439 0.00670285 0.000831938 0.0131578 0.0107668 0.00178841 0.0128199 -0.00179115 -0.0133703 0.00616375 -0.00696813 -0.041429 -0.0145067 -0.0262691 -0.0162295 0.0407928 0.0365778 0.0250321 0.00770882 0.0333927 0.0257316 0.00152846 0.0370924 -0.0132812 -0.0397257 0.0145989 -0.0226385 -0.0300341 -0.151433 -0.00484309 0.122883 0.0544938 0.0469152 0.126945 -0.0515044 -0.255976 -0.193576 -0.0582247 0.0793774 -0.241821 -0.0377716 -0.0714978 -0.0552105 -0.0224358 -0.0921179 0.00630505 0.105416 0.0965606 0.136303 0.164162 -0.0880196 -0.253716 -0.26096 -0.0671521 0.144664 -0.187431 -0.0423762 -0.142337 -0.10614 0.0447197 0.0993814 0.0744444 0.033463 -0.0235408 -0.0392337 -0.0315709 -0.00455372 -0.330252 -0.406444 0.00749569 -0.0406751 -0.00560864 0.0411642 -0.263752 0.00151058 0.190454 0.189254 0.0682668 0.0575493 -0.0366421 -0.171108 0.0712806 -0.0129526 -0.102145 -0.0542902 -0.0536332 -0.0915954 0.115663 0.185761 -0.289816 0.183447 -0.0551893 0.24866 -0.046491 -0.0216593 0.0492812 -0.125948 0.0747262 0.0269399 -0.0408268 0.0487435 -0.00137385 -0.0741352 0.16452 -0.0910504 -0.215667 0.0968208 0.0799584 -0.100982 0.0113645 0.205546 0.0136049 -0.123487 0.100146 -0.080153 -0.260832 -0.209589 -0.131626 -0.137699 -0.230712 -0.129593 -0.186605 0.173064 0.0967558 -0.192406 -0.00501142 0.0765067 0.0365267 -0.0651097 -0.093882 -0.0311062 -0.096414 -0.2217 -0.115094 -0.160931 -0.192406 -0.020199 -0.0764153 0.185216 0.166462 -0.252984 0.0648636 0.123848 0.0390053 -0.0332194 -0.144611 0.0170322 -0.0689304 -0.177899 -0.135956 -0.174151 -0.292097 0.0871777 -0.116579 0.196928 -0.00142643 -0.19599 -0.0753767 0.0159614 0.035906 0.0212289 -0.0505222 -0.0282955 0.114195 0.108473 -0.133728 -0.0484751 -0.0753214 0.0835637 0.0159988 -0.00623923 0.00536053 -0.166587 -0.105464 -0.0116646 0.0872389 0.11466 0.0398975 -0.0203995 0.14825 0.135724 -0.0957182 0.0695927 0.0218493 0.112288 0.0635646 -0.0247564 -0.0567441 -0.113845 -0.0586828 0.117977 0.162507 0.205966 0.117728 -0.0267345 0.0846695 0.0536449 -0.105714 0.164263 -0.0523899 -0.0402076 -0.0359199 -0.132219 -0.197042 -0.174202 -0.106834 0.171873 0.249018 0.301522 0.20546 -0.1129 0.162613 0.129127 -0.172294 0.259167 -0.101616 -0.12953 -0.0236279 -0.203397 -0.29615 -0.0190915 -0.244965 0.12036 0.157612 0.131564 0.113562 -0.110227 0.133321 0.0948666 -0.0156507 0.105347 0.0910044 -0.249045 0.0911731 -0.169863 -0.238363 -0.0164434 -0.261357 0.0372625 0.159014 0.128718 0.130128 -0.130911 0.130279 0.236775 -0.043159 0.0863034 0.135481 -0.227481 0.140587 -0.213012 -0.232556 0.153057 -0.384568 -0.246448 0.118235 0.164458 0.0812928 0.0177087 0.223591 0.48577 0.110166 0.113361 0.354576 -0.270943 0.315838 -0.228339 0.177467 0.155323 -0.110995 -0.160005 0.120121 0.197212 0.063709 0.00470206 0.092608 0.219958 0.12101 0.0724843 0.141138 0.0312031 -0.0190724 -0.0420104 0.179119 0.133029 -0.233111 -0.376601 0.0356667 0.215813 -0.0130603 0.0287988 0.24308 0.411875 0.211279 0.122564 0.304948 0.020372 0.210358 -0.0323768 0.128803 0.26104 -0.287551 -0.504553 0.0946488 0.183231 -0.0886734 0.169433 0.335623 0.481989 0.341531 0.128197 0.502459 -0.00631574 0.29517 -0.064677 0.0208342 0.239843 -0.145155 -0.413926 -0.0864164 -0.162407 -0.242319 0.15396 0.150351 0.227029 0.282779 -0.153654 0.472852 0.0665921 0.20502 0.0542811 -0.0291911 0.122847 -0.174147 -0.23779 0.00383362 -0.0498514 -0.100674 0.146073 0.211639 0.210608 0.178279 -0.0105122 0.375669 0.0285762 0.208508 -0.00284084 -0.0939889 0.0966056 -0.102951 -0.0869268 0.0730941 0.0496066 -0.00109616 0.0972006 0.112868 0.120501 0.0867635 0.0929461 0.114226 -0.102244 0.0960693 -0.0708695 0 0.000318878 0.00103316 0.00105867 0.000943878 0.000854592 0.000854592 0.000765306 0.000931122 0.000994898 0.000102041 0.000114796 0.000956633 0.00100765 0.000229592 1.27551e-05 0.000841837 0.00119898 0.000778061 0.000586735 2.55102e-05 0.000625 0.000994898 0.000637755 0.000867347 0.000854592 0.00104592 0.000880102 0.000561224 0.000127551 0.000765306 0.000510204 0.000880102 0.00117347 0.000344388 0.000408163 0.000293367 0.00112245 0.00125 0.000727041 0.000420918 0.000459184 0.00103316 0 0.00112245 0.000382653 0.000956633 0.000867347 0.000102041 0.000204082 0.000459184 0.00057398 0.000841837 0.000522959 0.000267857 0.000892857 0.0011352 0.00107143 0.00123724 0.000459184 0.000625 0.000382653 0.00114796 1.27551e-05 0.00123724 0.00105867 0.000612245 0.000790816 0.000459184 5.10204e-05 0.000280612 0.000318878 0.000637755 0.000969388 0.000191327 0.000204082 0.00059949 0.000204082 0.000548469 0.000841837 0.000969388 0.000829082 0.00125 1.27551e-05 0.000318878 0.000969388 0.000140306 0.000102041 0.000255102 0.00100765 0.000216837 0.000165816 0.000459184 0.00065051 0.000688776 0.00126276 -0.0203102 -0.0235376 -0.0104204 -0.0086327 0.0269802 0.0240279 0.0224988 0.0140827 0.0155781 0.0103547 -0.00105946 0.023926 -0.0213094 -0.0218963 0.00376498 -0.0158634 -0.037946 -0.1011 -0.00439553 0.0740413 0.066107 0.0645279 0.148798 -0.019588 -0.260375 -0.226839 -0.0305039 0.091081 -0.1892 -0.0453179 -0.0572933 -0.0763121 -0.00359396 0.0255844 0.100769 0.127999 0.0571104 0.0953207 0.0431511 -0.0343182 -0.392681 -0.491186 -0.0295646 0.0417639 -0.111731 -0.0140383 -0.320163 -0.052322 0.0434319 -0.000235932 0.130943 0.171505 0.000300858 -0.0278056 -0.0884537 -0.0440179 -0.450814 -0.526962 -0.1211 -0.0488917 -0.136302 0.0598608 -0.384463 0.0149092 0.15582 0.149423 0.146039 0.189797 -0.00225646 -0.146169 0.0234628 -0.0617514 -0.251429 -0.154868 -0.110048 -0.0753227 0.0491496 0.174629 -0.458358 0.156515 0.11011 0.176329 0.171501 0.27185 -0.000510281 -0.193537 -0.00502144 -0.0344453 -0.238004 -0.153503 -0.0993634 -0.151794 -0.00794928 0.110595 -0.51175 0.209564 0.259208 -0.187249 0.201807 0.373056 0.0685217 -0.104448 0.284636 -0.209876 -0.311626 -0.190348 -0.281698 -0.0151782 -0.404353 0.13249 -0.37068 0.253566 0.249544 -0.137839 0.104992 0.266303 -0.0440994 -0.152226 -0.101706 -0.0405974 -0.141521 -0.224141 -0.111415 -0.24805 -0.271716 0.208827 -0.190909 0.355911 0.295276 -0.241984 0.0977267 0.18057 -0.0773662 -0.0531463 -0.0831773 -0.0981679 -0.13118 -0.230394 -0.173889 -0.122825 -0.279252 0.2253 -0.111448 0.228127 0.0762862 -0.151657 -0.0584996 0.0285858 0.0246754 0.0867362 0.0303788 -0.0728934 0.102752 0.115858 -0.133751 0.0664998 -0.0384388 0.156719 0.18898 0.0614277 0.0227804 -0.104399 -0.0435607 0.0501856 0.084833 0.125466 0.0434602 -0.0202821 0.0809162 0.0781331 -0.103431 0.0994368 -0.0563577 0.0759479 0.0767833 0.00984862 -0.0295228 -0.0347567 -0.0263953 0.0698147 0.106472 0.169183 0.0997135 -0.0300657 0.0328622 0.019384 -0.0734366 0.159185 -0.06289 -0.0174142 -0.0116354 -0.0549874 -0.0606758 -0.0480558 -0.0382005 0.257268 0.159614 0.176728 0.190688 -0.137645 0.076518 0.0265773 -0.0947507 0.174922 -0.105556 -0.0451077 -0.0646813 -0.0797783 -0.215066 0.0257384 -0.206112 0.218626 0.112876 0.0828124 0.0959537 -0.099841 0.111174 0.0498574 0.0401818 0.0591723 0.0651067 -0.227693 0.0814052 -0.121145 -0.228712 0.00731103 -0.272949 0.0470199 0.159419 0.180967 0.119339 -0.130721 0.152019 0.163978 -0.0361884 0.136974 0.116894 -0.238091 0.15272 -0.255766 -0.0409639 0.118396 -0.266779 -0.0815994 0.0289166 0.164624 -0.0305757 -0.0189592 0.0443052 0.168558 0.0935795 0.0768849 0.178653 -0.140486 0.136848 -0.173882 0.110193 0.071872 -0.144469 -0.146127 0.173657 0.31533 0.116342 -0.037088 0.0996883 0.301525 0.054791 0.203538 0.0481287 -0.0894516 0.0106186 -0.156844 0.0750949 0.125561 -0.222523 -0.364072 0.140478 0.304975 0.0661524 0.0543739 0.2244 0.450583 0.194587 0.210496 0.237027 -0.145853 0.180144 -0.162925 0.113291 0.17858 -0.211695 -0.459502 0.106154 0.173502 -0.0153547 0.135453 0.279423 0.453711 0.294827 0.10075 0.439342 -0.0623638 0.261356 -0.0336033 -0.0254117 0.26332 -0.206191 -0.493099 -0.0418306 -0.127041 -0.181185 0.167297 0.219888 0.444101 0.295842 -0.105744 0.593103 0.0101094 0.288477 0.0367309 -0.0270639 0.128515 -0.173691 -0.237585 -0.00340108 -0.0624232 -0.110981 0.147509 0.208771 0.206333 0.189641 -0.0215416 0.382837 0.0297679 0.202216 0.00113399 -0.0473924 0.126112 -0.0790851 -0.0891313 0.0323857 0.0145631 -0.0296414 0.0791339 0.0818988 0.0542697 0.0899183 0.0586139 0.151392 -0.0515929 0.0653387 -0.0350283 0.000408163 8.92857e-05 0.000892857 0.000408163 1.27551e-05 0.0011352 0.000114796 0.00110969 0.000931122 0.000854592 0.000382653 0.00107143 0.000102041 0.00122449 0.000178571 0.000841837 0.000790816 0.000586735 1.27551e-05 0.000446429 0.000446429 0.000255102 0.000216837 0.000714286 0.000637755 0.000816327 0.00118622 0.000586735 0.00123724 0.00067602 6.37755e-05 0.00103316 0.00112245 0.000280612 0.000778061 0.000561224 0.00059949 0.000497449 0.000497449 0.00103316 0.000153061 0.000625 0.000727041 2.55102e-05 0.000382653 0.000267857 0.00100765 1.27551e-05 7.65306e-05 3.82653e-05 0.00123724 0.00102041 0.000204082 0.000216837 0.000510204 0.000510204 0.000688776 0.000471939 0.000535714 0.000140306 8.92857e-05 0.000892857 0.00059949 3.82653e-05 0.00105867 0.000816327 0.000816327 0.0011352 0.000663265 0.000931122 0.00105867 0.000943878 0.000969388 0.00112245 0.000931122 0.00107143 0.00119898 0.00102041 0.000497449 0.00117347 0.000688776 0.000204082 0.000625 0.00125 1.27551e-05 0.000216837 0.000178571 0.000242347 0.00122449 0.00105867 0.000306122 0.000293367 3.82653e-05 0.00118622 0.000752551 0.000420918 -0.00443835 -0.00516243 0.0068433 0.0220453 0.007045 0.00795647 0.00778273 0.0155789 -0.00445533 -0.0395373 0.00744302 0.00678863 -0.00894546 -0.00464868 -0.0287354 0.00152497 -0.0399197 -0.0529062 0.00471866 0.0570842 0.0671075 0.0786375 0.156152 0.0172416 -0.274849 -0.314179 0.00716909 0.0930002 -0.131413 -0.0463961 -0.0873309 -0.0982778 0.00866057 0.0434317 0.107159 0.126636 0.0344016 0.0782483 0.0150897 -0.0440745 -0.407533 -0.514813 -0.0333556 0.0157587 -0.0972254 -0.00231892 -0.342699 -0.0421821 0.0635967 -0.0650928 0.105799 0.185966 0.0172733 0.00391926 -0.00562489 -0.13709 -0.450033 -0.541532 -0.213632 -0.00376929 -0.197234 0.0798037 -0.412312 -0.0284484 0.166239 0.0756455 0.155332 0.227981 -0.0101765 -0.109195 0.00689409 -0.12641 -0.24274 -0.104354 -0.171433 -0.0389886 0.00559601 0.179493 -0.488141 0.0873559 0.209098 0.036469 0.211536 0.407843 -0.105009 -0.306901 -0.0814101 -0.133058 -0.297252 -0.133917 -0.209075 -0.227672 -0.157079 0.28404 -0.544929 0.292841 0.406393 -0.168477 0.269029 0.563326 -0.0699992 -0.258532 0.0842175 -0.226419 -0.385216 -0.234988 -0.273765 -0.141207 -0.394424 0.320237 -0.510232 0.389318 0.422962 -0.0992617 0.137604 0.350088 -0.14456 -0.250962 -0.209102 -0.0182066 -0.180596 -0.0862184 -0.0629526 -0.31575 -0.187027 0.36819 -0.149113 0.458771 0.373679 -0.191014 0.137469 0.263963 -0.0679259 -0.0343719 -0.0147204 -0.0853825 -0.159913 -0.282426 -0.134597 -0.0825795 -0.243357 0.320003 -0.0575982 0.301987 0.213495 -0.150765 -0.010738 0.0787353 -0.0357426 0.0455431 0.0117106 -0.0754625 0.0144679 -0.0323942 -0.118207 0.0354317 -0.0543384 0.218975 0.128768 0.153455 0.0707536 -0.00755729 -0.00942654 0.102316 -0.0121562 0.0475076 0.0324408 -0.0518544 -0.01522 -0.0507776 -0.0610046 0.0512333 0.0282781 0.0750123 0.0769457 0.0334146 0.0695697 0.0695957 0.0153629 0.178238 -0.00625809 -0.03483 0.0359971 -0.0190485 -0.0386445 -0.119308 0.0213286 -0.0302921 0.0435511 0.10469 -0.0228669 0.0879097 -0.0664447 0.0185756 -0.0774253 0.283044 0.0637229 0.0110934 0.0733831 -0.0928423 0.0489503 -0.0273833 -0.00500731 -0.00763687 -0.0132615 -0.0640938 -0.0305636 -0.0187085 -0.159602 0.0343262 -0.221901 0.20879 0.0811535 0.1127 0.0838537 -0.100252 0.12816 0.0902064 0.0414792 0.0723255 0.0850727 -0.18744 0.101806 -0.156472 -0.075451 0.0343766 -0.250035 0.0820063 0.0983098 0.230992 0.0375012 -0.118818 0.108489 0.11776 -0.00593706 0.142298 0.0735712 -0.146937 0.104094 -0.228741 0.0904224 0.0774261 -0.195841 -0.0615029 -0.00653195 0.145469 -0.1153 -0.00931157 -0.014863 -0.0287437 0.110735 0.0251171 0.0483794 -0.0807962 0.0823607 -0.130768 0.0372449 0.00371355 -0.217831 -0.252697 0.25534 0.40464 0.0975895 0.0171482 0.199382 0.374034 0.049267 0.302654 0.0564069 -0.178419 0.111587 -0.277971 0.107696 0.117607 -0.244871 -0.41159 0.128609 0.244002 0.00637422 0.109401 0.284635 0.522188 0.247176 0.143737 0.317067 -0.0709463 0.26695 -0.111059 0.0295928 0.0965199 -0.169248 -0.425669 0.132678 0.100592 0.0677977 0.0990358 0.249375 0.454781 0.223725 0.0464868 0.402329 -0.112477 0.262156 -0.0232061 -0.0640347 0.266071 -0.233362 -0.52766 0.0146807 -0.0729209 -0.0885675 0.18829 0.262138 0.491251 0.276412 -0.0365709 0.653516 -0.0385654 0.345384 0.0124867 0.0390429 0.146987 -0.140748 -0.22256 -0.0674666 -0.123898 -0.15086 0.132885 0.166526 0.231047 0.193872 -0.0790462 0.394026 0.102518 0.172641 0.0691348 0.0226302 0.156207 -0.0430592 -0.0854463 -0.0281432 -0.0385977 -0.0699846 0.0537576 0.0383359 -0.0372163 0.0896922 0.00582383 0.192149 0.0258608 0.0229005 0.021236 0.000931122 0.000969388 0.00122449 0.000229592 0.000918367 0.000497449 0.000816327 0.000510204 0.000280612 0.000255102 0.000344388 0.000216837 0.000267857 0.000663265 0.00067602 0.000931122 0.000178571 0.000267857 0.00109694 0.000306122 0.000471939 0.00114796 0.000446429 0.000548469 0.000357143 0.000357143 0.00059949 0.000306122 0.00105867 0.000459184 0.000102041 0.00117347 0.000752551 0.00126276 0.000739796 0.000408163 0.000803571 0.000433673 0.000191327 0.000484694 0.00107143 0.000267857 0.00112245 0.000778061 0.000663265 0.000229592 0.000637755 0.000765306 0.000931122 0.000178571 0.000931122 0.00102041 0.00105867 0.000612245 0.000931122 0.000701531 0.00116071 0.000318878 0.000727041 0.000548469 0.00118622 0.00114796 0.000880102 0.00104592 0.000829082 0.000408163 0.000293367 0.000969388 0.000522959 0.00103316 0.00119898 8.92857e-05 0.000905612 0 0.000739796 0.0011352 0.000612245 0.000382653 0.000331633 0.000956633 0.000918367 0.000420918 0.000994898 0.000420918 0.000459184 0.00104592 0.00121173 0.00104592 0.000612245 0.000484694 0.000267857 0.000318878 0.000739796 0.000446429 1.27551e-05 0.000408163 0.0243052 0.025203 0.0414273 0.0860657 -0.0279531 -0.0185773 -0.0161052 0.0247484 -0.0429844 -0.147198 0.0254722 -0.024762 0.0129246 0.0244842 -0.0988673 0.0326363 0.00936309 -0.0313831 0.0251501 0.0771485 -0.0108226 0.0276827 0.0773248 -0.0120746 -0.321206 -0.362226 -0.0114374 0.0245765 -0.124239 0.0023235 -0.122342 -0.0490581 -0.00493856 0.0380878 0.0789135 0.124267 0.0365 0.0771685 0.0144009 -0.0807933 -0.398477 -0.507934 -0.0567962 0.012468 -0.101591 -0.00727508 -0.343923 -0.0581704 0.104053 -0.12647 0.109703 0.212583 0.0334436 0.0434643 0.111098 -0.220763 -0.455112 -0.570675 -0.290551 0.0779746 -0.254607 0.128729 -0.473385 -0.0317924 0.10833 -0.000299305 0.128549 0.245122 0.0291795 -0.0659475 0.0254682 -0.170729 -0.199982 -0.153415 -0.238958 0.0142873 -0.0420649 0.156129 -0.444839 0.0926743 0.111127 -0.136884 0.1217 0.469176 0.0426734 -0.172823 0.092714 -0.193315 -0.158181 0.0807057 -0.300102 -0.0680085 -0.208311 0.210091 -0.385751 0.185251 0.325864 -0.0122788 0.159612 0.432882 -0.0257859 -0.12873 0.128893 -0.185269 -0.250363 -0.0454688 -0.130251 -0.0344925 -0.101342 0.293686 -0.424837 0.225403 0.460826 0.0425087 -0.0206753 0.16814 -0.154583 -0.113348 -0.222365 0.0243337 -0.0365657 0.150372 0.0484354 -0.174298 0.0805795 0.440854 -0.0275883 0.32211 0.439643 -0.0673854 -0.0324436 0.24478 -0.130779 -0.00416845 -0.106734 -0.00894504 -0.0742595 -0.0647617 -0.0213635 -0.0813683 -0.102298 0.410629 0.0635674 0.261359 0.403602 -0.119666 -0.0402296 0.226654 -0.123983 0.0525609 -0.0437647 -0.0376153 -0.211542 -0.217312 -0.0158321 0.0325002 -0.155253 0.349453 0.0914069 0.170167 0.172911 0.0286155 -0.0432295 0.304995 -0.0841153 0.0517692 0.0178936 -0.0590535 -0.238637 -0.165592 0.00250377 0.0639943 -0.121673 0.212307 0.0510327 0.0136139 0.182377 0.0442048 -0.0379958 0.304112 -0.121481 -0.011117 -0.0306812 -0.0432315 -0.250761 -0.18368 0.0170858 -0.00290149 -0.128257 0.218159 0.0382324 0.0574488 -0.0138045 -0.0177323 -0.217926 0.292608 -0.078994 0.0296649 -0.0318935 -0.121495 -0.164568 -0.103506 0.0302938 0.00809632 -0.110457 -0.0762513 0.0673076 -0.0782533 0.120524 -0.13195 -0.167524 0.412062 0.0306774 0.182728 0.124418 -0.160393 -0.226882 -0.240384 -0.00393499 0.12232 -0.240957 -0.0713605 -0.0595676 -0.143291 0.0401296 -0.152154 -0.141314 0.290535 0.0988773 0.233751 0.0736206 -0.185978 -0.283393 -0.19816 -0.0497734 0.143941 -0.265988 -0.123002 -0.0719669 -0.223604 0.0889964 -0.0884381 -0.202589 -0.0833674 0.0606521 0.250698 0.0025261 -0.00784504 -0.146392 0.0125763 0.0461812 0.160204 -0.133075 -0.133788 0.0847053 -0.279898 0.0647832 -0.0548941 -0.225614 -0.173098 0.242345 0.392085 0.111225 -0.0109461 0.113395 0.209781 0.00848326 0.311959 -0.0734406 -0.137916 0.0942763 -0.284821 0.0543945 0.105205 -0.244156 -0.417813 0.135775 0.192891 0.0438575 0.0855087 0.292768 0.531429 0.216191 0.116408 0.346674 -0.0831326 0.302026 -0.10106 -0.113974 0.112141 -0.241797 -0.455287 0.16913 0.138419 0.134378 0.105013 0.330815 0.603535 0.184431 0.119002 0.495229 -0.16364 0.351006 -0.126508 -0.0336033 0.271447 -0.163125 -0.455886 -0.00604358 -0.0863672 -0.0961794 0.16741 0.20245 0.392382 0.259103 -0.0499668 0.610246 0.00201322 0.28665 0.0585118 0.0630603 0.167112 -0.104378 -0.192828 -0.0876455 -0.122809 -0.143293 0.092463 0.113864 0.279276 0.162518 -0.0741764 0.362016 0.106216 0.114689 0.0933402 0.0242946 0.164288 -0.0563801 -0.111988 -0.036655 -0.053113 -0.0799566 0.0609959 0.0510164 0.0683466 0.109919 -0.00597849 0.237863 0.0243518 0.0374948 0.0267303 0.000747389 0.0342127 0.00037844 -0.0337754 0.000422678 -0.00124092 -8.46084e-05 0.00331872 0.000563635 0.000275504 0.0113464 -0.000521516 0.0396242 0.00095766 0.00183742 0.00180386 0.000433673 0.00065051 0.000790816 0.00065051 3.82653e-05 0.000497449 0.000892857 0.000854592 0.00125 0.000408163 0.000752551 0.00126276 0.000153061 0.000127551 0.000522959 0.000701531 3.82653e-05 0.000497449 0.000369898 0.000701531 0.000497449 5.10204e-05 0.000867347 0.000471939 0.000204082 0.000165816 0.000255102 0.000331633 0.000943878 0.00126276 0.00126276 0.00107143 0.000357143 0.000255102 0.00104592 0.00067602 0.000471939 0.000688776 0.000408163 0.00102041 6.37755e-05 0.000408163 0.000803571 0.000867347 0.000816327 0.00109694 7.65306e-05 0.00125 0.000459184 0.000140306 0.000204082 0.00112245 0.00100765 0.000408163 0.000497449 0.000127551 0.000114796 0.000178571 0.000778061 0.00112245 0.000497449 0.000255102 0.00110969 0.000344388 0.00119898 2.55102e-05 0.000178571 0.000318878 0.000153061 0.000382653 0.000956633 0.000905612 0.000765306 0.000880102 0.000931122 0.000420918 0.000829082 0.000191327 0.000892857 0.00123724 0.0261892 0.0272169 0.0453627 0.0941394 -0.0307808 -0.0198356 -0.0171986 0.0270982 -0.0467537 -0.162796 0.0279398 -0.0274716 0.0145867 0.0265192 -0.108015 0.03678 0.0485164 -0.0394867 0.0439996 0.1291 -0.0792917 -0.0152884 -0.030457 -0.0246627 -0.358873 -0.399772 -0.0405644 -0.0587342 -0.156924 0.0422767 -0.169633 0.011727 0.0404595 -0.0430799 0.0904495 0.15691 -0.0176811 0.012707 -0.048299 -0.110535 -0.448773 -0.558525 -0.136026 -0.0526932 -0.185018 0.0511267 -0.399199 -0.0259352 0.105623 -0.131653 0.103403 0.235738 0.0126559 0.00181293 0.0266759 -0.192222 -0.433587 -0.50911 -0.283331 0.0373583 -0.252116 0.138239 -0.469876 0.0154842 0.0554296 -0.154146 0.128704 0.273209 0.062289 -0.0156872 0.0620769 -0.208403 -0.267542 -0.298695 -0.344946 0.0474147 -0.177558 0.121117 -0.439487 0.0599916 0.221424 -0.228894 0.138775 0.394881 -0.0337135 -0.186467 0.109754 -0.174273 -0.466523 -0.145553 -0.29194 -0.0477204 -0.268992 0.267123 -0.405256 0.129204 0.292822 0.006219 0.117367 0.408357 -0.108035 -0.1076 0.00873128 -0.0637265 -0.449422 -0.0660493 -0.0547953 -0.0584442 -0.126561 0.341017 -0.341796 0.117946 0.467567 -0.0607105 -0.00592025 0.288718 -0.124662 -0.118429 -0.1662 0.0328084 -0.300114 -0.0347279 0.0505068 -0.168102 -0.0908275 0.445493 -0.123177 0.257124 0.507284 -0.0404219 -0.023206 0.273711 -0.164435 -0.110094 -0.149666 0.0296566 -0.292474 -0.0669312 0.0774118 -0.151231 -0.0893888 0.447418 -0.0355082 0.278539 0.426446 -0.0537834 -0.0155974 0.312776 -0.151086 -0.0850731 -0.070022 0.00111684 -0.263653 -0.214108 0.0697786 -0.08964 -0.141251 0.394634 0.0685558 0.285684 0.308496 -0.00523007 0.0183194 0.357237 -0.12881 -0.0642672 -0.0577337 -0.0240599 -0.324548 -0.347459 0.0310495 -0.0606228 -0.238121 0.231653 -0.0245829 0.200425 0.250593 0.0347658 -0.0167719 0.294613 -0.197191 -0.114439 -0.137019 -0.0150164 -0.341437 -0.32506 0.0664572 -0.122106 -0.161293 0.189652 -0.00169198 0.161195 0.132084 -0.0700041 -0.0967642 0.38229 -0.101734 -0.0323235 -0.105836 -0.0827609 -0.310722 -0.320151 0.0662861 -0.0832063 -0.205695 -0.0358304 0.00767949 0.0369875 0.163158 -0.171601 -0.0911013 0.360531 0.0238854 0.149016 0.0280563 -0.0920832 -0.303769 -0.272279 0.0271042 0.069855 -0.266391 -0.0797816 -0.0735816 -0.160624 -0.0472998 -0.211135 -0.204053 0.115014 0.17128 0.352168 0.101453 -0.145783 -0.18436 0.0135052 -0.0453255 0.275298 -0.262313 -0.244976 0.0365756 -0.366936 0.180331 -0.139221 -0.0894358 -0.00957522 0.109746 0.308883 0.115189 -0.0374101 -0.207356 -0.0384302 -0.0523215 0.256348 -0.315703 -0.0176974 -0.0355748 -0.224683 0.0112381 -0.146743 -0.151558 -0.0345956 0.247465 0.332972 0.200951 -0.0874735 -0.117609 0.0442358 -0.0783996 0.308246 -0.288194 -0.129351 0.00897335 -0.245367 -0.0944178 0.0324452 -0.235786 -0.357668 0.187882 0.166701 0.196987 0.029965 0.210751 0.397113 0.100689 0.158533 0.19944 -0.136912 0.323054 -0.132903 -0.110518 0.0833523 -0.151162 -0.33022 0.191854 0.157816 0.168106 0.0498785 0.203698 0.469003 0.110442 0.145213 0.352508 -0.109435 0.2513 -0.0703142 0.0142558 0.25072 -0.0976112 -0.358936 -0.0410349 -0.108054 -0.11089 0.13369 0.142558 0.283227 0.226986 -0.0707539 0.520622 0.0641942 0.228287 0.122871 0.0273003 0.17715 -0.0767005 -0.15127 -0.0551492 -0.0783895 -0.100534 0.0692415 0.0647328 0.234294 0.133738 -0.0298518 0.305705 0.0264424 0.0491648 0.0335236 0.0260871 0.173846 -0.0762575 -0.150127 -0.0482627 -0.0714422 -0.0922301 0.070624 0.0704752 0.234385 0.13343 -0.0215251 0.303539 0.0248833 0.0612701 0.0319864 0.00130115 0.072425 0.000354315 -0.0704629 -0.00346138 -0.0114943 -0.00711078 0.00707782 0.0010442 0.000947931 0.0321988 -0.00772584 0.0850899 0.0013093 0.00255305 0.0065095 0.000242347 0.00103316 0.000714286 0.000867347 0.00103316 0.000293367 0.000102041 1.27551e-05 0.000114796 0.000854592 0.000727041 0.00059949 0.000280612 0.00059949 0.000357143 0.000918367 0.00105867 0.000586735 7.65306e-05 0.00104592 0.000765306 0.000778061 0.000255102 0.000918367 0.000357143 0.000854592 0.00117347 0.00121173 0.000816327 0.000242347 0.000637755 0.000318878 0.000969388 0.000102041 0.00121173 0.00117347 0.000459184 0.000459184 0.000178571 0.00119898 0.00109694 0.000688776 0.000395408 0.000956633 0.00121173 0.000459184 0.000267857 0.00116071 2.55102e-05 0.000586735 0.000191327 0.000943878 0.000306122 0.00105867 0.00065051 0.00109694 0.000663265 0.00107143 0.000331633 0.00112245 0.00100765 0.00104592 0.000331633 0.000165816 0.000816327 0.000191327 0 7.65306e-05 0.00117347 6.37755e-05 0.00112245 0.000982143 0.000357143 0.000586735 0.00116071 7.65306e-05 0.000114796 0.00110969 6.37755e-05 0.000548469 0.0258576 0.0282628 0.0454775 0.0949175 -0.0307042 -0.0204988 -0.0170455 0.0272002 -0.0469833 -0.162681 0.0284373 -0.0270252 0.0144337 0.0262896 -0.108436 0.0361932 0.0707072 -0.0634662 0.0652099 0.218129 -0.102379 -0.0404096 -0.0575885 -0.043035 -0.374497 -0.416352 -0.0579176 -0.0828777 -0.201318 0.0649212 -0.214212 0.05591 0.093876 -0.13829 0.142214 0.291211 -0.0411711 -0.0181632 -0.0913495 -0.111591 -0.477519 -0.587395 -0.224516 -0.0800388 -0.296193 0.104857 -0.450735 0.012722 0.185247 -0.177983 0.141636 0.287295 -0.0386402 -0.0492071 0.024842 -0.23214 -0.49499 -0.500128 -0.310147 0.000191152 -0.26892 0.188514 -0.512727 0.0115835 0.223412 -0.267224 0.252148 0.46031 0.0466913 -0.000993425 0.205205 -0.257255 -0.58001 -0.579032 -0.365258 0.0903285 -0.352875 0.214757 -0.594793 -0.0215009 0.234212 -0.303143 0.175214 0.404819 -0.0272172 -0.0583317 0.214033 -0.196444 -0.514462 -0.302864 -0.332482 0.0845691 -0.329872 0.242739 -0.390465 0.0226547 0.189591 0.0257588 0.0334656 0.262005 -0.088475 -0.00517212 -0.0440111 0.010271 -0.358897 0.052906 0.00296782 -0.00344518 -0.0268026 0.210362 -0.18047 0.000405531 0.419524 0.0238364 -0.0449241 0.227499 -0.146117 -0.14057 -0.182013 0.0675633 -0.248773 0.0547293 0.125221 -0.179293 0.0343281 0.42954 -0.0494466 0.203322 0.485474 0.0390725 -0.0163494 0.227247 -0.147476 -0.190029 -0.203511 0.0932866 -0.277556 -0.0207369 0.182504 -0.20536 0.0077053 0.426919 -0.0666995 0.286494 0.425786 0.0237927 -0.0550999 0.181162 -0.173147 -0.244873 -0.230746 0.102164 -0.230053 0.0242683 0.156577 -0.23572 -0.0153863 0.394484 0.0491516 0.336965 0.367973 0.0144267 -0.00297758 0.230964 -0.215537 -0.231195 -0.255026 0.0797718 -0.357796 -0.148363 0.128234 -0.258163 -0.112233 0.263482 0.0226918 0.275942 0.213809 -0.0130794 -0.02325 0.267775 -0.169874 -0.129084 -0.188602 0.0309681 -0.402234 -0.313571 0.0940443 -0.182893 -0.24137 0.0626725 0.0416487 0.163885 0.0891685 -0.137102 -0.078811 0.37942 -0.0207062 0.0228786 -0.0439297 -0.0592565 -0.300118 -0.285168 0.00435011 -0.0315225 -0.353777 -0.0841559 0.0189312 0.0143065 0.107037 -0.25292 -0.151726 0.101098 0.0190256 0.247016 0.0486906 -0.131437 -0.251935 -0.0900309 -0.0620822 0.18319 -0.335893 -0.171655 0.0820985 -0.262455 -0.0132928 -0.195232 -0.260638 -0.0148584 0.109903 0.312958 0.0681983 -0.126961 -0.094518 0.112734 -0.037592 0.254866 -0.219789 -0.227262 0.252866 -0.323323 0.117188 -0.123767 -0.0783995 -0.0189759 0.11957 0.242286 0.130902 -0.0397605 -0.196695 -0.0159909 -0.0505229 0.216301 -0.262599 -0.0422435 0.11557 -0.200506 -0.136119 -0.147693 -0.156117 -0.0363711 0.230482 0.216539 0.222305 -0.124035 -0.0973556 0.113994 -0.10776 0.243059 -0.207351 -0.159656 0.174204 -0.232882 -0.0658507 -0.0530127 -0.185296 -0.217501 0.16453 0.154043 0.237043 -0.0095431 0.0026378 0.0835842 0.0134722 0.157353 0.0439506 -0.0851907 0.220432 -0.119532 -0.0420028 0.0357786 -0.09094 -0.200069 0.147168 0.104406 0.149123 -0.0170284 0.0333572 0.141969 0.0595986 0.105941 0.205569 -0.0027666 0.149634 -0.0188239 0.0142085 0.213311 -0.0973726 -0.320972 -0.0397555 -0.105733 -0.110298 0.130953 0.142095 0.283306 0.215387 -0.0698936 0.477017 0.0639893 0.228096 0.121126 0.0277339 0.177086 -0.0759862 -0.15224 -0.0551109 -0.0777135 -0.099692 0.0698538 0.0652302 0.234843 0.133304 -0.0290099 0.305615 0.0261363 0.0491903 0.0330261 0.0262118 0.173688 -0.0778532 -0.15264 -0.0493588 -0.0726232 -0.0938913 0.0702634 0.0715544 0.243546 0.135061 -0.0227523 0.307875 0.0246381 0.0625103 0.0320145 0.00135876 0.0795023 -0.000334015 -0.0729592 -0.00877316 -0.0267965 -0.0163095 0.00991832 0.000395777 0.000783985 0.0489313 -0.0185446 0.0938043 0.00127875 0.00266225 0.013274 0.00059949 0.000535714 0.00057398 6.37755e-05 0.000867347 0.000293367 0.000255102 0.000446429 0.000306122 0.000931122 0.000688776 0.000829082 0.000306122 0 7.65306e-05 0.000344388 0.00105867 0.000867347 6.37755e-05 0.000446429 0.000778061 0.000471939 0.000178571 0.00067602 0.00112245 0.00057398 0.000216837 0.00109694 0.000140306 0.000688776 0.000204082 0.00110969 0.000446429 0.00067602 0.000369898 0.000102041 0.000204082 0.00057398 0.00119898 0.00123724 0.000102041 0.000969388 0.00104592 0.00126276 0.000535714 2.55102e-05 0.00121173 0.000688776 0.000727041 0.000765306 0.000969388 0.000369898 0.00109694 0.000918367 0.000982143 0.00110969 0.000561224 0.000165816 0.000114796 0.000165816 0.000331633 0.00125 0.000752551 0.000561224 0.000586735 0.00109694 0.000816327 0.00122449 0.000306122 0.000854592 0.000306122 6.37755e-05 0.000880102 0.000803571 0.000905612 0.000727041 0.00067602 0.000701531 0.00119898 0.000892857 0.0261892 0.0283394 0.0464342 0.0947261 -0.030819 -0.0202565 -0.0179384 0.0270727 -0.0466517 -0.162923 0.0282459 -0.0268849 0.013324 0.0265702 -0.108372 0.0361805 0.0815603 -0.0732387 0.0712604 0.250946 -0.110672 -0.0597039 -0.0726515 -0.0552179 -0.378628 -0.425911 -0.0687604 -0.0969434 -0.216816 0.0746819 -0.243093 0.083098 0.187732 -0.174027 0.213761 0.443978 -0.0987885 -0.0691705 -0.143724 -0.116029 -0.548708 -0.66083 -0.244876 -0.122368 -0.38358 0.178621 -0.550427 0.101325 0.379056 -0.188633 0.289215 0.41149 -0.147592 -0.128042 0.0647444 -0.254434 -0.666293 -0.654799 -0.331074 -0.0494836 -0.353507 0.327604 -0.650301 0.0746433 0.391065 -0.172832 0.244316 0.318505 -0.122859 -0.146761 0.151608 -0.212492 -0.558008 -0.553619 -0.253513 -0.00354932 -0.24886 0.318458 -0.559777 0.00507903 0.369808 -0.257118 0.152575 0.301153 -0.176918 -0.165762 0.150128 -0.139641 -0.429175 -0.367597 -0.241858 -0.00322554 -0.334794 0.275383 -0.320336 0.0334416 0.33322 -0.156623 0.124272 0.290814 -0.193134 -0.124394 -0.0892463 -0.00281048 -0.399234 -0.146455 -0.115147 -0.0813418 -0.285635 0.242041 -0.2288 0.000384931 0.396702 -0.082157 0.0185871 0.272487 -0.258601 -0.228729 -0.231636 0.0744444 -0.285092 0.115562 -0.012979 -0.205976 -0.135793 0.437344 -0.0869214 0.163834 0.429293 -0.127124 0.0791549 0.399231 -0.226152 -0.305458 -0.244239 0.092511 -0.416153 -0.137953 0.0239791 -0.285713 -0.257279 0.383809 -0.159802 0.360521 0.319771 -0.11228 -0.0337062 0.307499 -0.242451 -0.314007 -0.280205 0.0943061 -0.385713 -0.0928827 0.0754551 -0.297885 -0.164862 0.245666 -0.046818 0.304566 0.294748 -0.0745502 -0.0792028 0.202728 -0.25061 -0.325362 -0.312854 0.107289 -0.247345 0.022737 0.0934131 -0.310605 -0.0420163 0.212964 0.0985529 0.305536 0.242667 -0.0344334 -0.123338 0.0565661 -0.219628 -0.294175 -0.316879 0.136352 -0.0477738 0.193911 0.102747 -0.275315 0.102284 0.145937 0.24706 0.277061 0.0494481 -0.175428 -0.211963 0.0873497 -0.017924 -0.040382 -0.119555 0.0295507 0.0997283 0.253918 -0.0267884 -0.0286064 -0.0680789 -0.115874 0.249577 0.00730826 0.100801 -0.208315 -0.288559 -0.153223 0.0105717 0.190107 -0.0662016 -0.0672618 0.168247 0.312364 -0.0852103 0.146485 -0.165813 -0.183087 0.320128 -0.272449 0.0141736 -0.20983 -0.29234 -0.0809739 0.173954 0.351738 0.0918302 -0.0891844 0.138662 0.29696 -0.117278 0.287992 -0.249072 -0.194753 0.310713 -0.295517 0.0551918 -0.117506 -0.204934 -0.135106 0.127477 0.219474 0.163558 -0.0655768 -0.0879507 0.128953 -0.0703598 0.221252 -0.205392 -0.0707764 0.247303 -0.228171 -0.0459684 -0.105269 -0.184828 -0.047833 0.170066 0.152603 0.190457 -0.118168 -0.0553162 0.110749 -0.0734567 0.196214 -0.097632 -0.0682534 0.231097 -0.171097 -0.0743789 -0.108097 -0.136776 -0.0771327 0.171951 0.177018 0.238089 -0.120111 -0.088386 -0.0494988 -0.0744317 0.164325 -0.0864876 -0.0456691 0.139538 -0.0774429 0.0150823 -0.058005 -0.0572392 -0.0327404 0.102935 0.0576167 0.154261 -0.124862 -0.184029 -0.123968 0.00320343 0.092444 -0.0378058 0.0518382 0.0795304 -0.00621477 0.0302315 0.176724 -0.0812316 -0.249811 -0.04418 -0.103032 -0.0751902 0.0545974 0.0129458 0.184255 0.179341 -0.0580858 0.36069 0.0777869 0.184764 0.114264 0.0276839 0.172983 -0.0768658 -0.138081 -0.0552163 -0.0780999 -0.0998296 0.0487478 0.0604395 0.234421 0.131523 -0.0298904 0.28248 0.0268417 0.0478858 0.0336235 0.0256761 0.173688 -0.0777384 -0.152793 -0.0493333 -0.0719344 -0.0941082 0.0709267 0.0720646 0.243521 0.135686 -0.0222421 0.307697 0.0243065 0.0625613 0.032614 0.00281099 0.0842757 -0.0157009 -0.103606 -0.0145877 -0.0321279 -0.0206767 0.0165941 0.0154438 0.132953 0.0589268 -0.0246579 0.142717 0.000245994 0.0212046 0.0136119 0.00102041 0.000586735 0.000306122 0.000204082 0.000535714 0.000382653 0.000344388 0.000548469 0.000752551 7.65306e-05 0.00102041 0.00121173 0.00110969 0.000510204 0.000841837 0.000637755 0.000905612 0.000943878 0.00116071 0.000267857 0.00114796 0.00103316 0.000943878 0.000548469 0.00103316 0.000331633 0.000369898 0.000382653 0.00104592 0.000765306 0.00112245 0.00121173 0.00100765 0.000510204 0.000280612 0.000318878 0.00126276 0.000625 0.000459184 0.000880102 0.000331633 0.00118622 0.00109694 0.000765306 0.000982143 0.000803571 0.00116071 0.000790816 0.000522959 0.000369898 0.000510204 2.55102e-05 0.000714286 0.000727041 0.000216837 0.000178571 0.000956633 0.00109694 0.00109694 3.82653e-05 0.00119898 0.000433673 0.000701531 0.000612245 0.000267857 0.000165816 0.00105867 0.00122449 0.000867347 0.00118622 0.000229592 0.00057398 0.000994898 0.00117347 0.000790816 0.000612245 0.000165816 0.000471939 0.000127551 0.000382653 0.0261127 0.0272169 0.0458985 0.0947134 -0.0298624 -0.0204223 -0.0172241 0.027264 -0.0474297 -0.163191 0.0280419 -0.0268722 0.0136301 0.0270549 -0.108117 0.0359764 0.108953 -0.00371612 0.0548116 0.144618 -0.100043 -0.0436122 -0.0929159 -0.0336509 -0.260516 -0.34345 -0.0596296 -0.0964486 -0.109313 0.0897592 -0.227266 0.0532143 0.287534 -0.171388 0.249751 0.484303 -0.121029 -0.050997 -0.138174 -0.115988 -0.605259 -0.71662 -0.238656 -0.114457 -0.403404 0.238336 -0.606333 0.080658 0.396732 -0.163733 0.255775 0.348486 -0.168574 -0.13602 0.055068 -0.228431 -0.596733 -0.585841 -0.318284 -0.0504544 -0.37049 0.334583 -0.587986 0.0953283 0.399616 -0.152553 0.247552 0.312627 -0.135296 -0.162165 0.126998 -0.191625 -0.558811 -0.553322 -0.247085 -0.0133912 -0.276034 0.329243 -0.563016 0.0417194 0.378126 -0.26015 0.164059 0.340672 -0.175423 -0.1694 0.143983 -0.129101 -0.434077 -0.369634 -0.25898 -0.0167442 -0.407451 0.283581 -0.3232 0.0401028 0.182565 -0.164947 0.145552 0.310304 -0.13992 -0.141086 -0.0872084 0.0405504 -0.299843 -0.257731 -0.105252 -0.135031 -0.344475 0.0983676 -0.187702 0.0290305 0.0991107 0.00650109 -0.0347953 0.122526 -0.197154 -0.372221 -0.279875 0.16017 -0.04222 0.023047 0.0940089 -0.362978 -0.00151568 0.0606863 0.0487318 0.242582 0.245494 0.0285485 -0.135127 0.0157721 -0.266143 -0.419969 -0.412366 0.225647 0.03684 0.212998 0.186953 -0.422128 0.111628 0.157497 0.166752 0.364927 0.270847 0.0778992 -0.192922 -0.0237134 -0.321893 -0.391989 -0.523796 0.279431 0.0927262 0.300204 0.215172 -0.421397 0.144803 0.182033 0.19812 0.360425 0.246322 0.073034 -0.204197 -0.0357155 -0.308449 -0.38402 -0.524449 0.299855 0.105668 0.338179 0.21833 -0.415562 0.140942 0.154135 0.211826 0.346813 0.164297 0.0288612 -0.243585 -0.0839472 -0.23492 -0.316619 -0.464602 0.337989 0.153483 0.436619 0.218981 -0.345437 0.111332 0.0633393 0.256827 0.279807 0.0819267 -0.0639184 -0.31117 -0.0674816 -0.135368 -0.203358 -0.35814 0.213575 0.250871 0.543576 0.135166 -0.234604 0.0574761 -0.0409279 0.371568 0.166443 0.164044 -0.134292 -0.339273 -0.150238 -0.0841445 -0.0599367 -0.191436 0.0918243 0.246198 0.547712 0.0554068 -0.0958773 0.0480804 -0.0175513 0.411867 -0.0207237 0.0362641 -0.213872 -0.434439 -0.187707 0.048866 0.171017 -0.0219404 0.0419918 0.373666 0.586 -0.0380467 0.128782 -0.00861098 -0.168034 0.527736 -0.166414 0.0784705 -0.119291 -0.458322 -0.341193 -0.0178338 0.156907 -0.0583329 0.023444 0.187114 0.336992 0.0238348 0.114312 0.00999183 -0.0860591 0.564075 -0.146993 0.119361 -0.0564802 -0.251375 -0.116682 0.0133871 0.0453813 -0.0030699 -0.0881974 -0.143859 -0.10422 0.0705763 0.0349156 0.035409 -0.0310794 0.25474 -0.0165106 -0.0846248 -0.174006 -0.142628 -0.0291802 0.174806 0.173529 0.210885 -0.154947 -0.191012 -0.165993 -0.0756607 0.159198 -0.155238 -0.111038 0.123709 -0.0522264 0.0511927 -0.0576421 -0.0999819 -0.0839752 0.0497691 0.0069536 0.0832493 -0.131048 -0.166247 -0.00582503 0.0115012 0.0662311 -0.0144168 0.0902347 0.142195 0.0115711 0.0481847 0.112536 -0.0778769 -0.20216 -0.0511589 -0.0977545 -0.0265383 -0.00838631 -0.160777 0.0498926 0.135096 -0.0431985 0.226742 0.0941421 0.133526 0.102104 0.0373982 0.101545 -0.0639726 -0.0560306 -0.0627035 -0.0796487 -0.0737684 -0.0203558 -0.0636642 0.144485 0.101846 -0.024449 0.134648 0.0371514 0.00499173 0.0282786 0.0227438 0.166868 -0.0790341 -0.154053 -0.0485346 -0.0683722 -0.0940522 0.0665075 0.0720684 0.243907 0.134747 -0.0218293 0.296645 0.0228461 0.061544 0.0317133 0.00368818 0.0629616 -0.032252 -0.111068 -0.0202644 -0.0351825 -0.0229496 0.0201337 0.0324019 0.272706 0.0598506 -0.0280741 0.165261 0.000108186 0.0398582 0.0143054 0.000841837 0.000727041 1.27551e-05 0.000459184 0.000880102 0.000255102 0.00121173 0.000153061 0.000140306 8.92857e-05 0.000165816 0.000459184 0.000727041 0.000229592 0.000153061 0.000344388 0.000357143 0.00059949 0.000140306 0.000765306 0.00065051 0.00110969 0.000931122 0.00105867 0.000127551 0.000497449 0.00059949 0.000956633 0.000829082 0.000178571 0.000535714 0.000204082 0.000752551 0.000956633 0.000714286 0.000242347 0.00116071 1.27551e-05 0.00108418 0.000548469 0.000153061 0.0011352 0.000420918 0.00121173 0.000778061 0.000612245 0.000714286 0.000497449 0.000153061 0.000165816 0.000382653 0.00110969 0.000586735 0.000114796 0.000714286 0.00067602 0.000752551 0.000943878 0.000229592 0.00065051 0.000127551 0.000931122 0.000829082 0.000931122 0.00102041 8.92857e-05 0.000663265 0.000714286 0.000522959 0.000535714 0.00116071 3.82653e-05 3.82653e-05 0.000701531 0.00116071 0.0011352 0.000280612 0.000497449 0.000969388 0.00112245 0.0753669 0.0165247 0.0557093 0.11013 -0.0321764 -0.00783071 0.00246066 0.0129884 -0.0783048 -0.192484 0.0164986 -0.0166044 -0.000396937 0.0578436 -0.13538 0.00759645 0.18404 0.0406945 0.0580162 0.0850286 -0.105917 -0.0160547 -0.101635 -0.0203125 -0.161601 -0.279354 -0.0632064 -0.0889048 -0.0435068 0.125755 -0.223841 0.0218122 0.256769 -0.0300777 0.215664 0.31903 -0.10388 -0.0346235 -0.222831 -0.0278291 -0.302454 -0.489323 -0.165257 -0.127215 -0.179317 0.210968 -0.511229 0.0997896 0.350541 -0.0298357 0.256278 0.23484 -0.136755 -0.118076 -0.0275179 -0.150112 -0.354902 -0.414652 -0.258746 -0.0597838 -0.17224 0.305656 -0.545724 0.131131 0.371122 -0.0348941 0.245791 0.218787 -0.117284 -0.13236 0.0700488 -0.110117 -0.268198 -0.325568 -0.187549 -0.0234083 -0.145093 0.312426 -0.463312 0.0850554 0.312394 -0.156968 0.227513 0.337828 -0.0814567 -0.0920895 0.085886 -0.0855309 -0.204231 -0.217049 -0.249735 -0.00188383 -0.353626 0.254664 -0.329401 0.086245 0.129349 -0.146241 0.0969179 0.295406 -0.120579 -0.167151 -0.0767319 -0.032656 -0.184292 -0.220422 -0.138835 -0.136132 -0.331062 0.0517659 -0.172633 0.140565 0.255113 -0.150494 0.12532 0.388488 -0.220711 -0.331605 -0.185797 0.00515115 -0.274609 -0.434489 -0.108314 -0.33233 -0.443352 0.108688 -0.241071 0.378751 0.269507 -0.132833 0.0701413 0.326221 -0.23463 -0.369361 -0.219976 0.000705669 -0.229737 -0.373275 -0.0765122 -0.352974 -0.352442 0.113383 -0.181632 0.379654 0.310531 -0.0869528 -0.0285927 0.179609 -0.288587 -0.480974 -0.324012 0.0685945 -0.135425 -0.109076 0.0195686 -0.43907 -0.129913 0.189036 -0.0592512 0.443169 0.268412 -0.101724 -0.0947193 0.0940294 -0.257501 -0.469805 -0.322644 0.124751 -0.0554508 0.160065 0.0751948 -0.424437 -0.0459826 0.163987 0.0372271 0.434896 0.188499 -0.0747027 -0.206685 0.0696591 -0.202213 -0.324469 -0.275042 0.0918575 0.0873824 0.373337 0.0932472 -0.287988 0.00428347 0.115772 0.140847 0.294031 0.10506 -0.0820038 -0.402133 -0.0713153 -0.0562577 -0.0763321 -0.110868 0.045915 0.305892 0.608497 0.0447266 -0.0527859 0.0160982 0.00316279 0.315802 0.0717465 0.188796 -0.169954 -0.370681 -0.0748461 -0.0484369 0.00212231 -0.0162948 -0.0533456 0.2477 0.568952 -0.0603841 0.0194523 -0.0229474 0.046817 0.245558 -0.0251927 0.201464 -0.192393 -0.382561 -0.0626726 0.0043451 0.0694674 0.0696323 -0.0754901 0.280301 0.562323 -0.0752805 0.0863713 0.0123349 0.0110957 0.243115 -0.0692076 0.170262 -0.217581 -0.354582 -0.127274 -0.00623643 0.102262 0.0281475 -0.0414459 0.177515 0.454058 -0.103584 0.119372 -0.00858237 0.0474045 0.235743 -0.0660497 0.0595473 -0.207872 -0.263058 -0.0547246 0.0783558 0.155404 0.0752359 -0.0763847 -0.0377024 0.265833 -0.0823144 0.190785 -0.0098565 -0.100959 0.0654303 -0.111806 -0.134387 -0.284889 -0.327938 -0.151543 0.165966 0.180637 0.1213 -0.0662539 -0.105555 0.241502 -0.0523851 0.187116 -0.123608 -0.264782 0.312916 -0.11385 0.0190829 -0.052943 -0.141009 -0.187082 0.134742 0.0717435 0.143097 -0.0622697 -0.126611 0.207753 0.0592182 0.128154 0.0655008 -0.0107484 0.169504 -0.0162034 0.0131151 0.0479281 -0.180055 -0.252915 0.00274417 -0.0404907 0.0385089 -0.00566356 -0.0794573 0.199492 0.119494 0.0181509 0.179278 0.0310164 0.241038 0.0354461 0.110094 0.0210497 -0.0575108 0.0215795 -0.0707068 -0.0818778 -0.0284231 -0.0472628 -0.234856 0.00649771 0.0675605 -0.0108122 0.0163185 0.0509914 -0.0557112 0.0080251 0.0721672 0.139922 -0.0580913 -0.143571 -0.0474097 -0.0501914 -0.070629 0.0498754 0.0438755 0.193555 0.122371 -0.0295597 0.25665 0.0194877 0.00880801 0.0241011 0.0260171 0.0176493 -0.0393026 -0.0710267 -0.0205684 -0.0300879 -0.0225974 0.0179076 0.0368074 0.281587 0.045812 -0.0250144 0.112648 -0.000839571 0.0395952 0.00657702 0.000803571 0.00112245 0.000510204 0.00103316 0.000369898 0.000267857 0.00104592 0.000242347 0.00119898 0.00126276 0.00108418 0.000369898 0 0.000982143 0.000408163 0.000318878 0.000267857 0.00110969 0.000829082 0.00117347 0.00118622 0.000931122 0.000892857 0.000446429 0.00116071 0.00114796 3.82653e-05 0.000280612 0.000357143 8.92857e-05 7.65306e-05 0.000484694 0.000204082 0.00057398 0.000471939 0.000242347 0.00100765 0.000459184 0.000446429 0.000841837 0.00116071 0.00122449 0.00119898 0.000280612 0.000816327 0.000446429 0.000727041 0.000790816 0.000153061 0.000267857 0.00109694 0.000841837 0.000165816 0.000216837 0.000306122 7.65306e-05 0.00110969 0.000778061 0.000561224 0.000357143 0.00109694 0.00059949 0.0011352 0.000612245 0.0162154 -0.00659508 0.00959366 0.0102294 0.0011956 0.0152033 0.0167461 -0.00773012 -0.0137116 -0.0125429 -0.00556552 0.0127818 -0.00339836 0.0153918 -0.0119589 -0.014895 0.160899 0.00132762 0.0652201 0.131569 -0.0389082 0.0025838 0.0244276 -0.00717985 -0.125826 -0.239242 -0.000889039 -0.00744857 -0.0252261 0.105161 -0.177007 -0.0345895 0.171649 0.0786852 0.0641284 0.0566528 -0.0993032 -0.018448 -0.123185 0.0103024 -0.165581 -0.270684 -0.0399966 -0.0949648 -0.0108692 0.105937 -0.244642 0.0233773 0.185042 -0.027232 0.183202 0.277045 -0.0499373 0.00262974 -0.205618 0.0329075 -0.267378 -0.378939 -0.144016 -0.0857269 -0.183907 0.126851 -0.470577 0.0565068 0.259149 -0.0496108 0.219839 0.232787 -0.051918 -0.045684 -0.0370621 -0.0918319 -0.328463 -0.301447 -0.246914 -0.0166383 -0.205846 0.206951 -0.508644 0.0624897 0.272579 -0.0827962 0.331469 0.401676 -0.0729618 -0.0753268 0.0187937 -0.098861 -0.407174 -0.367737 -0.249536 -0.038633 -0.325559 0.220953 -0.568412 0.117029 0.291487 0.00415502 0.28352 0.293988 -0.0753887 -0.0703851 0.0340301 -0.0608713 -0.352898 -0.305185 -0.106459 -0.0570886 -0.280788 0.179651 -0.446024 0.132191 0.354841 -0.0654198 0.223146 0.386324 -0.113877 -0.204145 0.00629419 -0.0453137 -0.350829 -0.441905 -0.0606927 -0.2121 -0.374864 0.173559 -0.395402 0.277358 0.221209 -0.0694276 0.0495357 0.244923 -0.117126 -0.202344 -0.0406946 -0.0690512 -0.242096 -0.335264 -0.0304366 -0.213302 -0.247276 0.0475106 -0.208896 0.2115 0.192484 -0.00733156 -0.0633662 0.157973 -0.128468 -0.209888 -0.189173 -0.0133347 -0.112704 -0.225985 0.070675 -0.214933 -0.124256 0.0506381 -0.0873681 0.233187 0.146928 0.00420129 -0.0888821 0.167149 -0.0865055 -0.183396 -0.202684 0.0496594 -0.0699762 -0.14225 0.121156 -0.19396 -0.178059 0.00194159 -0.0375361 0.217274 0.00761258 0.0475446 -0.211872 -0.0721187 -0.102046 -0.102265 -0.263473 0.0771624 0.0667187 0.2553 0.153016 -0.101263 -0.0543062 -0.106243 0.133185 0.0779275 -0.125452 0.141581 -0.362044 -0.176825 -0.0677783 -0.138548 -0.254219 0.119086 0.294563 0.644198 0.219682 -0.137921 0.200455 -0.105248 0.339712 0.0285784 -0.171956 0.0141535 -0.429685 -0.146741 0.00491448 -0.125846 -0.112741 0.0739687 0.379272 0.695642 0.125793 -0.0881146 0.173284 -0.119779 0.410482 -0.0135069 -0.0266187 -0.183522 -0.386237 -0.0095667 0.0364725 0.0522714 0.0371971 -0.0275029 0.317628 0.631077 -0.0734871 0.0840806 -0.0805797 -0.0893462 0.309636 -0.0891922 0.148621 -0.15466 -0.389417 -0.0331606 0.0279473 0.0896132 0.0332741 -0.0407377 0.270219 0.605736 -0.0458296 0.146277 -0.00553445 -0.0293009 0.305489 -0.0836658 0.143765 -0.248098 -0.270396 0.100375 0.0481475 0.0713756 0.0149354 -0.0397504 0.0592289 0.398778 -0.140021 0.115783 -0.115867 0.0387691 0.14584 -0.0359769 0.0171411 -0.176362 -0.248897 -0.0151609 0.164978 0.171785 0.0583526 -0.0205268 0.0838283 0.400687 -0.0857531 0.219683 0.0215354 -0.135749 0.0873024 -0.0845475 0.0431786 -0.312493 -0.331661 -0.143743 0.109105 0.182882 0.100866 -0.0742574 0.0230287 0.376169 -0.164715 0.242953 -0.100154 -0.10941 0.266728 -0.127813 0.182648 -0.112506 -0.178201 -0.187498 0.070849 0.0737831 0.107219 -0.00225121 -0.165814 0.0618119 0.0518818 0.136072 0.0779816 -0.0105342 0.111511 0.012012 0.00407829 -0.0445331 -0.215711 -0.193466 0.0912491 0.0659467 0.144437 0.00556149 -0.072538 0.265484 0.049857 0.126779 0.0925123 -0.0590182 0.258198 -0.0776895 0.127312 0.00897042 -0.0310352 0.0261815 -0.0677604 -0.0866348 -0.00762087 -0.0290275 -0.287217 -0.0651297 0.0548886 -0.031771 0.0224265 0.0598249 -0.122447 -0.000510627 0.101146 0.0509447 0.00295498 -0.0186017 -0.0529652 -0.055352 -0.0135838 0.00939243 -0.13037 0.0239283 0.0704854 -0.0475576 0.120547 0.0367508 -0.114495 0.0225694 0.06065 0.0123392 -0.0488333 -0.0737386 -0.0190062 -0.0251193 -0.0220119 0.0160127 0.0403628 0.282476 0.0456002 -0.0208325 0.10461 -0.00206537 0.0392747 -0.00162162 0.000267857 0.000433673 0.000216837 0.000255102 0.000204082 0.000127551 0.000293367 0.00065051 7.65306e-05 0.000280612 0.000943878 5.10204e-05 0 0.000382653 0.000854592 0.00117347 0.000433673 0.00059949 0.000841837 0.000484694 0.00065051 0.000854592 6.37755e-05 0.000114796 0.000357143 0.000982143 0.00103316 0.00109694 0.00117347 0.000140306 0.0011352 0.000433673 0 0.000280612 0.000216837 0.000408163 5.10204e-05 0.000484694 0.000408163 0.000433673 0.000433673 0.00119898 0.00114796 0.00100765 0.000153061 0.00109694 0.000905612 0.00067602 0 0.000153061 0.000816327 0.000892857 0.000854592 0.00112245 0.000905612 0.000778061 0.000905612 0.00105867 0.000306122 0.00119898 0.00105867 0.000522959 0.000191327 0.00107143 0.051589 -0.0224969 0.0300808 0.0329969 0.00367962 0.0468246 0.0519112 -0.0270558 -0.0461065 -0.0436804 -0.0202843 0.0403583 -0.0139462 0.047826 -0.0415569 -0.0509972 0.130575 0.00930754 0.0657739 0.13267 -0.0313729 0.00476124 0.0213893 0.000768711 -0.127729 -0.23958 0.0037132 -0.00339764 -0.0232433 0.098621 -0.180864 -0.0294632 0.131013 0.17158 0.0762379 -0.00487339 -0.079602 -0.0232689 -0.172232 0.0801735 -0.170256 -0.249749 0.0370781 -0.106165 0.0999304 0.0577766 -0.28671 0.029824 0.164492 0.000922826 0.151721 0.23051 -0.0717106 -0.031625 -0.243536 0.0861827 -0.227585 -0.318972 -0.109839 -0.123612 -0.182755 0.10935 -0.405008 0.0779085 0.235923 0.0194238 0.212509 0.256743 -0.0849736 -0.0749537 -0.248851 0.0393461 -0.299396 -0.322799 -0.157306 -0.146712 -0.202356 0.177742 -0.495988 0.104901 0.369401 -0.0679001 0.306593 0.368043 -0.101079 -0.0942745 -0.180295 -0.0525742 -0.422377 -0.432046 -0.210818 -0.140828 -0.355307 0.279493 -0.62583 0.144179 0.478365 -0.089271 0.29976 0.403844 -0.0601634 -0.078523 0.000302505 -0.103407 -0.472127 -0.537739 -0.149755 -0.129515 -0.413207 0.309615 -0.570171 0.182331 0.498036 -0.176291 0.308043 0.545432 -0.0449848 -0.121295 0.0477746 -0.125378 -0.481701 -0.601835 -0.184419 -0.176221 -0.524024 0.33906 -0.585077 0.228545 0.468479 -0.161225 0.153512 0.364822 -0.0499659 -0.121458 0.0053749 -0.110538 -0.311231 -0.410749 -0.156839 -0.11426 -0.433614 0.304868 -0.406443 0.189274 0.458582 -0.140487 0.0634933 0.282869 -0.0546778 -0.122295 -0.00172546 -0.112355 -0.19286 -0.288729 -0.087062 -0.100667 -0.362497 0.286289 -0.290381 0.170147 0.336618 -0.114682 0.0117226 0.196943 -0.0213796 -0.0372099 0.0024962 -0.118313 -0.116912 -0.137004 -0.0846559 -0.0161311 -0.294205 0.213272 -0.224747 0.045331 0.162683 -0.0379354 -0.0794657 0.0244877 0.0622006 0.123228 0.0758293 -0.106507 0.0148899 0.111511 -0.0596011 0.146872 -0.165627 0.104933 -0.0660156 -0.172125 0.132743 -0.0375836 -0.0642826 0.0970742 0.174265 0.252569 0.211367 -0.157979 0.0649296 0.174211 -0.0785414 0.262384 -0.19117 0.0572904 -0.0458534 -0.281214 0.101346 -0.0469959 -0.110734 0.117704 0.20869 0.252797 0.259743 -0.176071 0.116799 0.296612 -0.0887878 0.255914 -0.162978 0.0204021 -0.0378908 -0.269586 0.134821 -0.0466221 -0.110981 0.169901 0.194667 0.184851 0.248802 -0.183497 0.0906 0.373258 -0.0992782 0.186953 -0.139105 0.0449923 -0.110892 -0.220485 0.167969 -0.0604862 -0.133131 0.198525 0.127777 0.108735 0.159764 -0.126667 0.0980541 0.450319 -0.129259 0.187442 -0.0899124 0.0987803 -0.0467133 -0.167939 0.12792 -0.232089 -0.150799 0.254487 0.109037 0.175679 0.170788 -0.0942526 0.0276698 0.383762 -0.26671 0.235304 -0.21499 0.0369566 -0.0382673 -0.142841 0.117416 -0.141489 -0.166719 0.104793 0.150128 0.10653 0.0634582 0.0410459 0.000191301 0.261984 -0.0773817 0.143916 0.0581562 -0.00657472 0.0541502 -0.0235456 0.139615 -0.184214 -0.279619 -0.168379 0.0701747 0.142268 0.0267747 0.0111499 0.0597557 0.343171 -0.129272 0.152833 0.0685236 -0.00135691 0.179991 -0.0878619 0.267248 -0.193705 -0.251744 -0.119431 -0.00826415 0.103148 0.097766 -0.0725539 -0.219055 0.0568091 -0.0582672 0.190028 0.0729961 0.0541813 0.0691946 -0.119148 0.142992 -0.144043 -0.0557845 0.107128 0.0560471 0.0667571 0.123333 -0.0819878 -0.298229 -0.0199458 -0.106575 0.112991 -0.0843995 0.0325224 -0.0407836 -0.0984826 0.158831 0.00168452 0.0324504 0.0732124 -0.0654841 -0.0710766 0.0440358 -0.0439226 -0.361941 -0.160207 0.0280577 -0.0387162 0.0164273 0.0845734 -0.22034 -0.0133111 0.123558 -0.0812524 -0.000402146 0.112962 -0.0472715 -0.070131 0.0349038 -0.0468237 -0.3066 -0.0596246 -0.000730818 -0.0341282 -0.0881303 0.0506795 -0.142997 -0.00943572 0.0388639 0.0150592 -0.0435012 -0.0703803 -0.0193713 -0.0288156 -0.0227562 0.0172862 0.037795 0.282677 0.0463016 -0.022785 0.107819 -0.00220822 0.0390618 0.00376832 0.000854592 0.000548469 0.00118622 0.000446429 0.000153061 0.000994898 0.000905612 0.00102041 0.000790816 1.27551e-05 0.000535714 0.000905612 0.00110969 0.00110969 0.000905612 0.00123724 0 0.000739796 0.000153061 6.37755e-05 0.000114796 0.00065051 0.000892857 0.000408163 0.000943878 0.000140306 0.00104592 0.000395408 0.000765306 0.000688776 0.000625 0.000280612 0.000216837 0.00119898 0.000382653 0.000229592 0.00107143 0.000956633 0.000918367 0.000395408 0.00123724 0.00107143 0.000293367 0.000688776 0.000165816 0.00102041 0.00122449 0.00114796 0.000204082 0.000331633 5.10204e-05 0.000140306 0.000433673 0.000522959 0.00122449 0.000204082 0.000918367 0.000765306 0.000446429 0.000280612 0.000548469 0.000688776 0.000102041 0.000982143 0.0545589 -0.0234948 0.0318116 0.0349866 0.00395381 0.0497709 0.0563085 -0.0291534 -0.0494454 -0.0470276 -0.0218825 0.0430258 -0.0156694 0.0508935 -0.0443207 -0.054293 0.0890061 0.0288413 0.0737281 0.126233 -0.0316964 0.00302313 0.000969658 0.0226967 -0.117483 -0.226787 0.0194619 -0.00247398 -0.00787678 0.0871343 -0.175782 0.00233394 0.11779 0.194868 0.105015 0.023711 -0.0735482 -0.0544016 -0.206438 0.106231 -0.175516 -0.290251 0.0828516 -0.147548 0.138131 0.0829839 -0.296943 0.0616686 0.169208 0.0399375 0.157831 0.235151 -0.104832 -0.0813093 -0.308534 0.14245 -0.223716 -0.302263 -0.0662193 -0.193305 -0.206889 0.116955 -0.376259 0.115963 0.243461 0.116116 0.238726 0.222753 -0.187919 -0.195731 -0.489017 0.226033 -0.32252 -0.433473 -0.0243751 -0.346724 -0.187272 0.150834 -0.495686 0.249013 0.371727 -0.0526195 0.283353 0.27161 -0.138587 -0.153961 -0.403709 0.141289 -0.401082 -0.470692 -0.102965 -0.312349 -0.3812 0.17688 -0.475581 0.26659 0.42338 -0.017102 0.297772 0.404071 -0.102967 -0.178896 -0.238391 0.0738951 -0.46049 -0.573545 -0.0183442 -0.338342 -0.401123 0.245353 -0.40932 0.307026 0.409328 -0.135192 0.27577 0.482793 -0.0900295 -0.165321 -0.197138 0.00537395 -0.451147 -0.567501 -0.0894519 -0.316765 -0.521405 0.23506 -0.398126 0.287931 0.359981 -0.152029 0.17121 0.388407 -0.0437327 -0.110989 -0.0865129 -0.0500496 -0.353036 -0.453791 -0.0952323 -0.186869 -0.447956 0.190748 -0.343159 0.203386 0.188901 -0.130698 -0.000927082 0.230271 0.0917588 0.0508105 0.102491 -0.0824277 -0.139694 -0.147891 -0.057217 0.0697889 -0.293719 0.0720554 -0.153347 -0.0332868 0.00315532 -0.0730655 -0.069323 0.0259623 0.20435 0.2279 0.173797 -0.0623464 -0.0196212 0.0909829 -0.0180097 0.234976 -0.131622 -0.0480213 -0.0115307 -0.295643 -0.00318818 0.0104605 -0.110703 -0.146757 0.186532 0.220317 0.112199 0.00881392 0.0483048 0.149101 0.0479687 0.205126 -0.0439611 -0.0630397 0.0654197 -0.318892 -0.00923216 -0.00713175 -0.128791 -0.028748 0.235695 0.269985 0.145365 -0.0178658 0.139665 0.243615 0.0227454 0.241702 -0.10709 -0.108825 0.0624755 -0.365983 -0.0219969 -0.0160282 -0.14796 0.0206901 0.244686 0.323036 0.198501 -0.0602224 0.156913 0.261105 -0.0115018 0.28437 -0.145598 -0.155712 0.0528424 -0.390504 0.0490833 -0.00562209 -0.0992977 0.119977 0.166987 0.227741 0.160098 -0.139198 0.0808198 0.169675 -0.0764726 0.194621 -0.186574 -0.0655898 -0.0509229 -0.284041 0.0552285 0.0444128 -0.0678251 0.198041 0.155502 0.0811192 0.0694486 -0.0861311 0.0452379 0.118904 -0.0239207 0.0616624 -0.113325 -0.0119913 -0.0549964 -0.0890945 0.0865258 -0.0648334 -0.0983842 0.158009 0.144567 0.101902 0.136215 -0.0397198 0.0703136 0.145749 -0.129884 0.125844 -0.106248 0.0858563 0.00129171 -0.0411007 0.189544 -0.0590998 -0.184195 0.0814571 0.0664945 0.000338894 -0.0522687 0.067966 0.074184 0.0875671 -0.0364975 0.0337482 0.0145403 0.0807787 0.18564 0.0403188 0.19802 -0.100669 -0.240375 -0.0627421 0.0269481 0.035005 -0.0246141 0.0214532 0.0401729 0.03183 -0.102281 0.036383 -0.00621087 0.0756785 0.152417 0.0134788 0.341085 -0.119774 -0.110619 0.0419604 -0.0757354 -0.00986792 0.00534562 -0.076851 -0.261138 -0.341704 -0.0616761 0.0179393 0.0895954 0.15012 -0.0862081 0.0166852 0.328525 -0.262744 0.0582639 0.25593 -0.13402 -0.114928 0.0188903 -0.132297 -0.424864 -0.23821 -0.23953 -0.0539831 -0.252646 0.236452 -0.255409 0.0337271 0.192177 -0.037923 0.0699007 0.134906 -0.0803038 -0.0574256 0.0709862 -0.0645036 -0.409906 -0.199714 0.00174459 -0.0294916 -0.0265154 0.137338 -0.250809 -0.0322583 0.0542443 -0.115809 -0.0100579 0.105192 -0.0314224 -0.0673258 0.047156 -0.0635633 -0.296748 0.0270122 -0.0270232 -0.0256219 -0.131735 0.0403909 -0.0818622 -0.017471 0.00414366 0.0180902 -0.0338996 -0.0650867 -0.0199294 -0.033426 -0.0228607 0.0181274 0.0338432 0.281443 0.0449654 -0.0267774 0.114208 0.000296429 0.0399919 0.0115431 0.000165816 0.000548469 0.00100765 0.000816327 0.00102041 0.000471939 0.00122449 0.000382653 0.000752551 0.000943878 5.10204e-05 0.000369898 0.000548469 0.000395408 0.000637755 0.000701531 1.27551e-05 0.000918367 0.000267857 0.000165816 0.000854592 0.000293367 0.000484694 0.00103316 0.000357143 0.00108418 0.000267857 0.000522959 0.000204082 0.000522959 0.000816327 0.000102041 0.000280612 0.000433673 0.000790816 0.00109694 0.00118622 0.00126276 0.00123724 0.000280612 0.000663265 0.000165816 0.00105867 0.000165816 0.000267857 0.000586735 0.00100765 0.000816327 0.00108418 0.00116071 0.000395408 0.000688776 0.00114796 0.00110969 0.00107143 0.00118622 0.00122449 0.000369898 0 0.000433673 0.000816327 2.55102e-05 0.000701531 0.000956633 0.0288967 -0.00308278 0.017629 0.0168993 -0.00122383 0.0174057 0.0150262 -0.00502891 -0.0277239 -0.0266567 -0.00376369 0.0160113 -0.00494774 0.0277623 -0.0267978 -0.0155059 0.0748898 0.0186716 0.0598071 0.0791153 -0.0229954 0.0154229 0.00582596 0.014107 -0.0875223 -0.140596 0.0107575 0.0120456 -0.00442998 0.0723394 -0.117378 -0.00207134 0.125077 0.194508 0.170888 0.128088 -0.08043 -0.0773461 -0.243064 0.134245 -0.198515 -0.34841 0.108968 -0.196794 0.0888771 0.109379 -0.319852 0.107634 0.177353 0.0776479 0.255861 0.288968 -0.119426 -0.146162 -0.376867 0.160421 -0.2893 -0.439955 -0.00828559 -0.273209 -0.108287 0.142624 -0.448953 0.170158 0.399114 0.113119 0.351864 0.297299 -0.222036 -0.317632 -0.551597 0.249749 -0.423249 -0.654423 0.0507268 -0.453514 -0.130791 0.262205 -0.568539 0.421698 0.430695 0.00495612 0.292757 0.207322 -0.225201 -0.317253 -0.536786 0.244971 -0.338682 -0.521089 0.0230596 -0.461885 -0.161194 0.303856 -0.319427 0.453005 0.39331 -0.00456161 0.241596 0.297338 -0.155257 -0.290833 -0.242932 0.113377 -0.337229 -0.52018 0.0362661 -0.365314 -0.285352 0.271826 -0.231931 0.41768 0.324025 -0.0457411 0.176059 0.277084 -0.076924 -0.176134 -0.101267 0.101341 -0.311241 -0.412264 0.0267501 -0.242549 -0.331943 0.125423 -0.194445 0.264882 0.243568 -0.0723411 0.0752261 0.217982 -0.00325427 -0.0762978 0.0652286 0.0306599 -0.191518 -0.240204 0.0124993 -0.107492 -0.244397 0.0688962 -0.057736 0.10541 -0.00196335 -0.044561 -0.0540984 0.00141821 0.150222 0.172498 0.225314 -0.011875 -0.0216827 0.0383986 -0.00185378 0.145063 -0.122383 -0.110844 -0.00459793 -0.211253 -0.0442085 -0.0660215 -0.0651356 -0.0938674 0.229783 0.305174 0.298717 -0.045072 -0.0174755 0.0636907 -0.0256625 0.270448 -0.0922083 -0.165503 0.00590078 -0.348198 -0.0184499 -0.0404497 0.00302238 -0.0357385 0.230332 0.284942 0.239036 -0.0336585 -0.0961393 -0.0242924 -0.011277 0.243672 -0.108141 -0.124014 -0.0983089 -0.31535 -0.0522593 -0.0969407 0.024402 0.125929 0.298113 0.368469 0.29586 -0.123484 -0.0763252 -0.00386228 -0.0797857 0.295965 -0.173763 -0.183929 -0.185998 -0.388291 -0.00800434 -0.0592984 -0.00414259 0.0899088 0.231369 0.306803 0.236168 -0.113245 -0.027808 0.0434643 -0.0703289 0.236424 -0.114765 -0.141804 -0.158266 -0.360533 0.0280165 -0.067748 -0.0477873 0.10913 0.167512 0.277657 0.208293 -0.196883 0.0289683 0.145008 -0.125731 0.238294 -0.191735 -0.110479 -0.138641 -0.315725 -0.0187288 0.0115642 -0.0828336 0.0710639 0.21984 0.22405 0.238378 -0.119519 0.0804203 0.154324 -0.0701634 0.22869 -0.0752148 -0.0920686 -0.0230897 -0.21682 0.123607 0.13673 -0.0507662 0.0409682 0.0417983 -0.0829694 -0.106014 0.0166183 -0.0817996 -0.206598 0.0989951 -0.131869 0.072886 0.0688624 -0.0730168 0.162513 0.281987 0.0946261 -0.133324 0.0276168 0.0215586 -0.0151022 -0.0266318 -0.00953812 0.0114786 -0.062457 0.0437663 0.0112029 0.165517 0.196609 0.139619 0.0696187 0.306331 -0.0284903 -0.24446 -0.0926649 -0.0689767 -0.0559911 -0.114595 0.0197452 0.0819534 -0.0185944 -0.064187 -0.0668123 0.0469303 0.188196 0.17295 0.100344 0.364357 -0.0262736 -0.0647984 0.1547 -0.163141 -0.151237 -0.11731 -0.0679226 -0.245485 -0.447532 -0.0295639 -0.13594 0.122273 0.236635 -0.147089 0.169649 0.253131 -0.273908 0.0596797 0.250585 -0.107991 -0.127159 0.127135 -0.170158 -0.419754 -0.193638 -0.258354 -0.00809349 -0.266224 0.241725 -0.32876 0.0429368 0.114146 -0.0717758 0.0536272 0.162625 -0.062158 -0.0616406 0.0603841 -0.0555169 -0.374877 -0.164307 -0.00120656 -0.0319958 -0.06357 0.0995261 -0.218654 -0.0127379 0.0490102 -0.113973 -0.00312343 0.104842 -0.0365379 -0.0632826 0.0474085 -0.0609048 -0.289496 0.0346603 -0.0246982 -0.0222947 -0.123143 0.03668 -0.0750822 -0.00804072 0.00282075 0.0140617 -0.0195386 -0.0383165 -0.015528 -0.0294537 -0.019958 0.0124957 0.0197424 0.166639 0.038144 -0.0224225 0.0716984 0.000513924 0.0232141 0.0116855 0.00112245 0.00105867 0.000446429 0.00116071 0.000408163 0.00100765 0.000255102 0.000522959 0.000561224 0.00126276 0.000255102 0.00065051 0.000446429 0.000433673 0.000357143 0.000841837 0.000905612 0.0011352 0.0011352 0.000446429 0.000127551 0.000790816 0.000854592 0.000637755 0.000127551 0.000982143 0.000433673 0.000204082 0 0.00126276 0.000790816 0.000612245 0.00107143 0.000778061 0.00107143 0.000790816 0.00109694 0.00059949 6.37755e-05 0.00108418 0.000306122 0.000178571 0.000522959 0.000178571 0.000586735 0.000790816 0.000663265 0.000204082 0.00508712 0.0127399 -0.0273637 -0.039737 -0.0109057 -0.00795662 -0.0124862 0.0141448 0.0468658 0.0431505 0.0136654 -0.0075927 0.0201238 0.000137367 0.0394994 -0.000631667 0.0154512 0.0807485 -0.0932605 -0.166011 -0.0460145 -0.0451675 -0.0812673 0.0815644 0.142136 0.12673 0.0780912 -0.0431028 0.114474 -0.00168224 0.118765 0.00342073 0.0192448 0.0783432 -0.110436 -0.199261 -0.0468249 -0.0459155 -0.0662731 0.0847095 0.0732052 0.0756087 0.0976112 -0.0452159 0.153886 -0.00529241 0.122225 -0.0550515 0.100056 0.130308 0.123557 0.122955 -0.100814 -0.0931968 -0.175402 0.138101 -0.307057 -0.391619 0.137311 -0.181561 0.0333151 0.0343811 -0.23876 0.0340055 0.136668 0.12295 0.210102 0.183147 -0.128088 -0.200164 -0.39283 0.184923 -0.311669 -0.402616 0.0604794 -0.290057 0.0276789 0.0797207 -0.341005 0.162095 0.378259 0.140551 0.218893 0.0500737 -0.200426 -0.326879 -0.524878 0.267433 -0.225341 -0.437824 0.135768 -0.444041 0.0866977 0.248603 -0.29709 0.436839 0.427029 0.113953 0.267079 0.104394 -0.293617 -0.433389 -0.658049 0.311834 -0.266186 -0.486414 0.129395 -0.54298 0.0517141 0.295655 -0.237118 0.572098 0.323215 -0.0892179 0.153354 0.192919 -0.140529 -0.335181 -0.299542 0.192001 -0.142983 -0.285582 0.0115356 -0.345055 -0.19532 0.217427 -0.0294097 0.504652 0.0532398 0.101241 0.0410164 0.0206084 0.0278059 -0.105448 -0.0317497 0.165708 -0.0600509 -0.110446 0.101995 -0.126891 -0.0905912 -0.0698823 0.0628884 0.190116 -0.114597 0.113444 -0.0455046 -0.110237 0.0727876 -0.0208401 0.0441602 0.169755 0.041189 0.0559884 0.116956 -0.058687 -0.0310791 -0.148723 0.152334 -0.000498029 -0.173531 0.0876298 -0.0733278 -0.159198 0.180889 0.118253 0.218478 0.108327 0.0670497 0.0807828 0.10984 0.0839393 -0.0331799 -0.200833 0.102485 -0.138712 -0.174838 0.0422654 -0.107042 -0.289071 0.167917 0.197716 0.203689 0.075807 0.0859603 0.13737 0.0627768 0.171333 0.0124632 -0.229754 0.132773 -0.244334 -0.114027 0.0563355 -0.0978489 -0.221552 0.121012 0.134631 0.124911 0.036896 0.0412247 0.0433839 0.0501237 0.117364 -0.00614708 -0.158131 0.083196 -0.165794 -0.124414 -0.0119342 -0.105186 -0.0318699 0.167511 0.184794 0.156008 -0.0885539 0.0845495 0.0966289 -0.0392009 0.162824 -0.0576675 -0.186671 0.0371975 -0.208376 -0.0864306 -0.0511366 -0.0117009 0.128941 0.126148 0.113739 0.102932 -0.135561 -0.00788446 0.0198014 -0.0829333 0.095002 -0.134126 -0.14178 -0.127458 -0.115817 -0.0420685 -0.0445463 0.0696051 0.177178 0.120705 0.181206 0.212698 -0.257754 -0.133584 -0.0628444 -0.140157 0.159619 -0.150767 -0.0869753 -0.268984 -0.178002 -0.0773058 -0.0230938 -0.0581463 -0.0361497 0.140679 0.244018 0.160332 -0.0986128 0.0609052 0.0863469 -0.0973136 0.185365 -0.0381597 -0.046796 -0.0443074 -0.123295 0.151367 0.248692 -0.205988 -0.202118 -0.0303122 0.0727584 -0.206903 0.0356581 0.0738423 0.0268626 0.17298 -0.0117852 0.291363 0.0711562 0.114479 0.0144206 0.222827 0.134911 -0.123024 -0.00407047 -0.0642201 -0.153892 -0.316492 0.123939 0.0226866 -0.0606825 0.0869728 -0.193805 0.166489 0.153347 0.14712 0.195404 0.3596 0.0171185 -0.247149 -0.0663999 -0.199405 -0.230329 -0.319451 0.0725172 0.10544 -0.0317313 -0.0152966 -0.218297 0.0786985 0.255744 0.178366 0.234268 0.35456 -0.0507741 -0.105473 0.192236 -0.229259 -0.236517 -0.157934 -0.0642065 -0.23079 -0.263602 -0.0538457 -0.141585 0.00182547 0.250868 -0.0470841 0.172052 0.210911 -0.267075 0.121661 0.359727 -0.119037 -0.233966 0.0850191 -0.125053 -0.435869 -0.243932 -0.245402 -0.123761 -0.305418 0.218967 -0.340298 0.203504 0.076007 -0.0656936 0.0523719 0.164217 -0.0837342 -0.0932317 -0.0269277 -0.0123439 -0.329904 -0.123931 0.0146163 -0.089509 -0.0620629 0.0638676 -0.179079 0.0570259 0.0467802 -0.113143 0.00738831 0.104332 -0.0434264 -0.0561365 0.0483351 -0.0580923 -0.279617 0.0432974 -0.0205247 -0.0190145 -0.110616 0.0344312 -0.066918 0.00328448 0.00053159 0.0054614 0.000683549 0.000595573 -0.00544286 -0.0139747 -0.008807 0.00384035 0.000791893 0.00121225 0.0167532 -0.00958328 0.00702774 0.00100595 0.000961193 0.00667231 0.000484694 0.0011352 7.65306e-05 0.000178571 0 0.000625 0.000127551 0.000892857 0.000216837 0.00105867 0.000484694 2.55102e-05 0.000140306 0.000216837 8.92857e-05 0.000178571 0.00118622 0.00119898 0.000382653 0.000318878 0.000931122 1.27551e-05 0.000395408 0.000216837 0.00112245 0.000625 0.000471939 0.000880102 0.000369898 0 0.000625 0.000969388 0.0011352 0.00059949 0.00103316 0.000306122 0.000854592 0.000433673 8.92857e-05 0.000280612 0.00065051 1.27551e-05 0.00108418 0.000714286 0.000548469 0.00114796 0.000344388 5.10204e-05 0.0150434 0.0378682 -0.0843122 -0.125556 -0.0367754 -0.0243764 -0.0418285 0.0423205 0.144593 0.132027 0.0418193 -0.0242929 0.060228 -0.00131898 0.120074 -0.00288488 0.00724074 0.122434 -0.134198 -0.268961 -0.0451576 -0.041926 -0.0923173 0.114013 0.183302 0.162746 0.122709 -0.0502761 0.228969 -0.0155492 0.170946 -0.0559661 0.0461293 0.00922256 -0.103796 -0.129089 -0.0659835 -0.0620566 -0.0289749 0.0481526 -0.0970004 -0.0502725 0.0702813 -0.0439307 0.0447326 0.0127327 0.081025 -0.0735083 0.104969 0.0571413 0.0095046 0.048335 -0.0985046 -0.0780401 -0.0941274 0.102385 -0.225655 -0.210783 0.119106 -0.104896 -0.0283889 0.0213815 -0.0496611 -0.0367784 0.162489 0.158961 0.0481822 0.0811273 -0.163766 -0.236654 -0.387385 0.16967 -0.317979 -0.329897 0.145804 -0.282832 0.0929733 0.0898565 -0.194433 0.0933613 0.344931 0.0827603 0.0488604 -0.0150873 -0.207692 -0.282009 -0.485187 0.220753 -0.2045 -0.350253 0.178616 -0.379463 0.171014 0.202578 -0.143408 0.271039 0.230684 0.228595 -0.144802 -0.396379 -0.272861 -0.224606 -0.574012 0.299371 0.0240358 -0.0838505 0.247025 -0.348206 0.467876 0.0691936 0.161039 0.176245 0.20877 0.154716 -0.155444 -0.315967 -0.166494 -0.16071 -0.379261 0.320313 0.111899 0.108602 0.199883 -0.216705 0.313214 0.0722703 0.266441 0.146779 -0.0159952 0.255784 -0.163154 -0.332423 -0.0403615 -0.0403579 -0.1374 0.27193 0.185988 0.267008 0.188498 -0.0694288 0.330731 -0.0190907 0.306809 -0.039337 -0.108294 0.219293 -0.124911 -0.342532 0.0416869 0.00514252 -0.00666458 0.252561 0.12168 0.142378 0.160615 -0.0458191 0.224494 -0.146974 0.248189 -0.0783999 -0.113356 0.109555 -0.0728914 -0.201943 0.0906141 0.0088863 0.0971558 0.185423 0.0661085 0.0253668 0.11807 -0.0312268 0.088117 -0.14816 0.138313 -0.0833959 -0.0967625 0.123819 -0.0677067 -0.253514 0.0849646 0.0761576 0.0968907 0.147321 0.0559985 0.00397049 0.13131 0.0426575 0.136301 -0.138809 0.0602197 -0.134347 -0.119158 0.0856912 -0.085426 -0.274793 0.0977002 0.126587 0.126438 0.05332 0.0581227 0.0528488 0.0958264 0.0961544 0.124764 -0.180083 0.0908657 -0.188578 -0.176601 -0.0113414 -0.0930351 -0.0638008 0.207433 0.214502 0.232879 -0.0959467 0.115254 0.12651 -0.0169162 0.191342 0.0651819 -0.26613 0.0391376 -0.244115 -0.131024 -0.0299234 -0.0354487 0.0651338 0.162748 0.149345 0.201614 -0.180027 0.0534265 0.109647 -0.0629845 0.163274 0.0273168 -0.210281 -0.0830355 -0.171158 0.0374201 -0.0694851 0.0123449 0.105006 0.105897 0.211462 0.223496 -0.232479 -0.0290688 0.00778228 -0.0937013 0.185033 0.00369342 -0.0467336 -0.164603 -0.179221 0.107623 0.0351242 -0.0610698 -0.0919479 0.0245754 0.204091 -0.0233072 -0.0424746 0.000263311 0.000405351 0.0091703 0.119351 0.14069 0.112265 -0.00683962 0.00672358 0.161203 0.166023 -0.114506 -0.149648 -0.0278852 0.15018 -0.176595 -0.00402482 -0.0430004 -0.0706227 0.0956059 0.0310148 0.258227 0.0620628 0.0567581 -0.0247811 0.244919 0.0859542 -0.152215 -0.0268941 -0.189091 -0.208114 -0.528654 0.192971 -0.0142648 -0.0651714 0.089851 -0.282554 0.114158 0.159325 0.162599 0.210131 0.476275 -0.0442912 -0.174443 0.170816 -0.284286 -0.327767 